{"learner":{"attributes":{"best_iteration":"149","best_ntree_limit":"150","scikit_learn":"{\"n_estimators\": 150, \"objective\": \"reg:squarederror\", \"max_depth\": 18, \"max_leaves\": null, \"max_bin\": null, \"grow_policy\": null, \"learning_rate\": null, \"verbosity\": null, \"booster\": null, \"tree_method\": null, \"gamma\": 1.2003070882854756, \"min_child_weight\": 3.0, \"max_delta_step\": null, \"subsample\": null, \"sampling_method\": null, \"colsample_bytree\": 0.839234037367196, \"colsample_bylevel\": null, \"colsample_bynode\": null, \"reg_alpha\": 159.0, \"reg_lambda\": 0.49269366982071555, \"scale_pos_weight\": null, \"base_score\": null, \"missing\": NaN, \"num_parallel_tree\": null, \"random_state\": null, \"n_jobs\": null, \"monotone_constraints\": null, \"interaction_constraints\": null, \"importance_type\": null, \"gpu_id\": null, \"validate_parameters\": null, \"predictor\": null, \"enable_categorical\": false, \"max_cat_to_onehot\": null, \"eval_metric\": null, \"early_stopping_rounds\": null, \"callbacks\": null, \"_estimator_type\": \"regressor\"}"},"feature_names":["Gender","Height"],"feature_types":["int","float"],"gradient_booster":{"model":{"gbtree_model_param":{"num_parallel_tree":"1","num_trees":"150","size_leaf_vector":"0"},"tree_info":[0,0,0,0,0,0,0,0,0,0,0,0,0,0,0,0,0,0,0,0,0,0,0,0,0,0,0,0,0,0,0,0,0,0,0,0,0,0,0,0,0,0,0,0,0,0,0,0,0,0,0,0,0,0,0,0,0,0,0,0,0,0,0,0,0,0,0,0,0,0,0,0,0,0,0,0,0,0,0,0,0,0,0,0,0,0,0,0,0,0,0,0,0,0,0,0,0,0,0,0,0,0,0,0,0,0,0,0,0,0,0,0,0,0,0,0,0,0,0,0,0,0,0,0,0,0,0,0,0,0,0,0,0,0,0,0,0,0,0,0,0,0,0,0,0,0,0,0,0,0],"trees":[{"base_weights":[1.6079698E2,1.3759315E2,1.8852452E2,1.2240719E2,1.4934012E2,1.7711346E2,2.0161409E2,1.1238116E2,1.2885825E2,1.4223521E2,1.560523E2,1.9685286E2,2.1568721E2],"categories":[],"categories_nodes":[],"categories_segments":[],"categories_sizes":[],"default_left":[1,1,1,1,1,0,1,0,0,0,0,0,0],"id":0,"left_children":[1,3,5,7,9,-1,11,-1,-1,-1,-1,-1,-1],"loss_changes":[5.082768E6,7.25648E5,4.65952E5,7.8078E4,5.8496E4,0E0,2.6424E4,0E0,0E0,0E0,0E0,0E0,0E0],"parents":[2147483647,0,0,1,1,2,2,3,3,4,4,6,6],"right_children":[2,4,6,8,10,-1,12,-1,-1,-1,-1,-1,-1],"split_conditions":[6.679689E1,6.339117E1,6.9666534E1,6.127656E1,6.507073E1,5.313404E1,7.250626E1,3.3714348E1,3.8657475E1,4.2670567E1,4.6815693E1,5.905586E1,6.470617E1],"split_indices":[1,1,1,1,1,0,1,0,0,0,0,0,0],"split_type":[0,0,0,0,0,0,0,0,0,0,0,0,0],"sum_hessian":[8E3,4.36E3,3.64E3,1.91E3,2.45E3,1.955E3,1.685E3,7.61E2,1.149E3,1.207E3,1.243E3,1.273E3,4.12E2],"tree_param":{"num_deleted":"0","num_feature":"2","num_nodes":"13","size_leaf_vector":"0"}},{"base_weights":[1.12614525E2,9.328192E1,1.3200967E2],"categories":[],"categories_nodes":[],"categories_segments":[],"categories_sizes":[],"default_left":[1,0,0],"id":1,"left_children":[1,-1,-1],"loss_changes":[2.957968E6,0E0,0E0],"parents":[2147483647,0,0],"right_children":[2,-1,-1],"split_conditions":[5E-1,2.7984577E1,3.9602905E1],"split_indices":[0,0,0],"split_type":[0,0,0],"sum_hessian":[8E3,4.012E3,3.988E3],"tree_param":{"num_deleted":"0","num_feature":"2","num_nodes":"3","size_leaf_vector":"0"}},{"base_weights":[7.884029E1,6.682262E1,9.516572E1,5.5954346E1,7.3196365E1,9.041128E1,1.07079025E2,3.794947E1,5.795968E1,6.9540375E1,7.825002E1,8.377258E1,9.373098E1,-0E0,3.842985E1],"categories":[],"categories_nodes":[],"categories_segments":[],"categories_sizes":[],"default_left":[1,1,1,1,1,1,0,1,0,0,0,0,0,0,0],"id":2,"left_children":[1,3,5,7,9,11,-1,13,-1,-1,-1,-1,-1,-1,-1],"loss_changes":[1.540752E6,2.9717E5,1.55588E5,4.5678E4,2.7374E4,2.1516E4,0E0,2.228625E3,0E0,0E0,0E0,0E0,0E0,0E0,0E0],"parents":[2147483647,0,0,1,1,2,2,3,3,4,4,5,5,7,7],"right_children":[2,4,6,8,10,12,-1,14,-1,-1,-1,-1,-1,-1,-1],"split_conditions":[6.718991E1,6.3069794E1,7.10952E1,5.9087685E1,6.548974E1,6.832031E1,3.212371E1,5.501114E1,1.7387905E1,2.0862114E1,2.3475008E1,2.5131777E1,2.8119295E1,-0E0,1.1528955E1],"split_indices":[1,1,1,1,1,1,0,1,0,0,0,0,0,0,0],"split_type":[0,0,0,0,0,0,0,0,0,0,0,0,0,0,0],"sum_hessian":[8E3,4.615E3,3.385E3,1.717E3,2.898E3,2.432E3,9.53E2,1.81E2,1.536E3,1.704E3,1.194E3,8.31E2,1.601E3,3E0,1.78E2],"tree_param":{"num_deleted":"0","num_feature":"2","num_nodes":"15","size_leaf_vector":"0"}},{"base_weights":[5.52348E1,4.5147892E1,6.533571E1],"categories":[],"categories_nodes":[],"categories_segments":[],"categories_sizes":[],"default_left":[1,0,0],"id":3,"left_children":[1,-1,-1],"loss_changes":[7.96126E5,0E0,0E0],"parents":[2147483647,0,0],"right_children":[2,-1,-1],"split_conditions":[5E-1,1.3544368E1,1.9600714E1],"split_indices":[0,0,0],"split_type":[0,0,0],"sum_hessian":[8E3,4.012E3,3.988E3],"tree_param":{"num_deleted":"0","num_feature":"2","num_nodes":"3","size_leaf_vector":"0"}},{"base_weights":[3.8672363E1,3.0235643E1,4.6067303E1,2.2470856E1,3.3568172E1,4.1203667E1,5.179698E1,8.235152E0,2.3651546E1,3.0841232E1,3.5482464E1,4.991044E1,6.4036316E1,-0E0,1.0272089E1,1.8897352E1,2.5300428E1],"categories":[],"categories_nodes":[],"categories_segments":[],"categories_sizes":[],"default_left":[1,1,1,1,1,0,1,1,1,0,0,0,0,0,0,0,0],"id":4,"left_children":[1,3,5,7,9,-1,11,13,15,-1,-1,-1,-1,-1,-1,-1,-1],"loss_changes":[4.86325E5,8.77155E4,1.02666E5,1.402025E4,2.52675E3,0E0,2.4998E4,1.3916382E3,9.17E2,0E0,0E0,0E0,0E0,0E0,0E0,0E0,0E0],"parents":[2147483647,0,0,1,1,2,2,3,3,4,4,6,6,7,7,8,8],"right_children":[2,4,6,8,10,-1,12,14,16,-1,-1,-1,-1,-1,-1,-1,-1],"split_conditions":[6.593622E1,6.2076153E1,6.928261E1,5.8393272E1,6.3897934E1,1.23611E1,7.340809E1,5.6816277E1,6.0186966E1,9.25237E0,1.0644739E1,1.4973132E1,1.9210896E1,-0E0,3.081627E0,5.6692057E0,7.590129E0],"split_indices":[1,1,1,1,1,0,1,1,1,0,0,0,0,0,0,0,0],"split_type":[0,0,0,0,0,0,0,0,0,0,0,0,0,0,0,0,0],"sum_hessian":[8E3,3.748E3,4.252E3,1.141E3,2.607E3,2.317E3,1.935E3,9.8E1,1.043E3,1.113E3,1.494E3,1.69E3,2.45E2,2.2E1,7.6E1,2.95E2,7.48E2],"tree_param":{"num_deleted":"0","num_feature":"2","num_nodes":"17","size_leaf_vector":"0"}},{"base_weights":[2.7118439E1,2.302101E1,3.5079132E1,1.6193848E1,2.5093119E1,3.3055958E1,4.116067E1,1.6758304E0,1.6714624E1,2.2073446E1,2.6561317E1,3.911685E1,5.297852E1,-0E0,2.6457977E0,1.3175855E1,1.815537E1,1.3278921E1,-0E0],"categories":[],"categories_nodes":[],"categories_segments":[],"categories_sizes":[],"default_left":[1,1,1,1,1,0,1,1,1,0,0,0,0,0,0,1,0,0,0],"id":5,"left_children":[1,3,5,7,9,-1,11,13,15,-1,-1,-1,-1,-1,-1,17,-1,-1,-1],"loss_changes":[2.51327E5,6.81625E4,2.080525E4,6.5317812E3,9.90925E3,0E0,1.2E2,1.7242258E2,1.0109375E3,0E0,0E0,0E0,0E0,0E0,0E0,5.0845312E2,0E0,0E0,0E0],"parents":[2147483647,0,0,1,1,2,2,3,3,4,4,6,6,7,7,8,8,15,15],"right_children":[2,4,6,8,10,-1,12,14,16,-1,-1,-1,-1,-1,-1,18,-1,-1,-1],"split_conditions":[6.812965E1,6.2263985E1,7.1804214E1,5.7775814E1,6.4417694E1,9.916788E0,7.479433E1,5.602895E1,6.033377E1,6.622034E0,7.9683957E0,1.1735056E1,1.5893557E1,-0E0,7.937394E-1,6.0328938E1,5.4466114E0,3.9836764E0,-0E0],"split_indices":[1,1,1,1,1,0,1,1,1,0,0,0,0,0,0,1,0,0,0],"split_type":[0,0,0,0,0,0,0,0,0,0,0,0,0,0,0,0,0,0,0],"sum_hessian":[8E3,5.296E3,2.704E3,1.252E3,4.044E3,2.051E3,6.53E2,5.4E1,1.198E3,1.361E3,2.683E3,5.7E2,8.3E1,8E0,4.6E1,3.8E2,8.18E2,3.77E2,3E0],"tree_param":{"num_deleted":"0","num_feature":"2","num_nodes":"19","size_leaf_vector":"0"}},{"base_weights":[1.9027315E1,1.5282082E1,2.2752869E1],"categories":[],"categories_nodes":[],"categories_segments":[],"categories_sizes":[],"default_left":[1,0,0],"id":6,"left_children":[1,-1,-1],"loss_changes":[1.054125E5,0E0,0E0],"parents":[2147483647,0,0],"right_children":[2,-1,-1],"split_conditions":[5E-1,4.584625E0,6.825861E0],"split_indices":[0,0,0],"split_type":[0,0,0],"sum_hessian":[8E3,4.012E3,3.988E3],"tree_param":{"num_deleted":"0","num_feature":"2","num_nodes":"3","size_leaf_vector":"0"}},{"base_weights":[1.3325782E1,1.0698019E1,1.5927845E1],"categories":[],"categories_nodes":[],"categories_segments":[],"categories_sizes":[],"default_left":[1,0,0],"id":7,"left_children":[1,-1,-1],"loss_changes":[5.038675E4,0E0,0E0],"parents":[2147483647,0,0],"right_children":[2,-1,-1],"split_conditions":[5E-1,3.209406E0,4.7783537E0],"split_indices":[0,0,0],"split_type":[0,0,0],"sum_hessian":[8E3,4.012E3,3.988E3],"tree_param":{"num_deleted":"0","num_feature":"2","num_nodes":"3","size_leaf_vector":"0"}},{"base_weights":[9.334502E0,7.273084E0,1.3262381E1,2.6475692E0,8.304467E0,1.2637579E1,2.3433163E1,-0E0,3.5881639E0,6.9758873E0,8.948376E0,1.1235174E1,1.4599291E1,-1.0051262E0,-0E0,3.6258707E0,-0E0,7.015994E0,-0E0,8.961204E0,-0E0,1.1246219E1,-0E0,3.013586E-1,-0E0],"categories":[],"categories_nodes":[],"categories_segments":[],"categories_sizes":[],"default_left":[1,1,1,1,1,1,0,1,1,1,1,1,0,0,1,0,0,0,0,0,0,0,0,0,0],"id":8,"left_children":[1,3,5,7,9,11,-1,13,15,17,19,21,-1,-1,23,-1,-1,-1,-1,-1,-1,-1,-1,-1,-1],"loss_changes":[6.1467312E4,2.3410688E4,1.1444969E4,2.7839287E3,1.1025938E3,2.92175E3,0E0,8.8392006E1,1.5291992E2,4.868047E2,1.6228125E2,7.046875E0,0E0,0E0,1.2123407E1,0E0,0E0,0E0,0E0,0E0,0E0,0E0,0E0,0E0,0E0],"parents":[2147483647,0,0,1,1,2,2,3,3,4,4,5,5,7,7,8,8,9,9,10,10,11,11,14,14],"right_children":[2,4,6,8,10,12,-1,14,16,18,20,22,-1,-1,24,-1,-1,-1,-1,-1,-1,-1,-1,-1,-1],"split_conditions":[6.809913E1,6.1800377E1,7.4111206E1,5.9493805E1,6.419928E1,7.064438E1,7.029949E0,5.8219505E1,6.1791504E1,6.418625E1,6.809217E1,7.064247E1,4.3797874E0,-3.0153787E-1,5.9397987E1,1.0877613E0,-0E0,2.1047983E0,-0E0,2.6883612E0,-0E0,3.3738658E0,-0E0,9.040759E-2,-0E0],"split_indices":[1,1,1,1,1,1,0,1,1,1,1,1,0,0,1,0,0,0,0,0,0,0,0,0,0],"split_type":[0,0,0,0,0,0,0,0,0,0,0,0,0,0,0,0,0,0,0,0,0,0,0,0,0],"sum_hessian":[8E3,5.274E3,2.726E3,9.9E2,4.284E3,2.584E3,1.42E2,2.35E2,7.55E2,1.481E3,2.803E3,1.556E3,1.028E3,8.7E1,1.48E2,7.51E2,4E0,1.474E3,7E0,2.797E3,6E0,1.553E3,3E0,1.33E2,1.5E1],"tree_param":{"num_deleted":"0","num_feature":"2","num_nodes":"25","size_leaf_vector":"0"}},{"base_weights":[6.5640726E0,5.4041176E0,7.690332E0],"categories":[],"categories_nodes":[],"categories_segments":[],"categories_sizes":[],"default_left":[1,0,0],"id":9,"left_children":[1,-1,-1],"loss_changes":[8.3494375E3,0E0,0E0],"parents":[2147483647,0,0],"right_children":[2,-1,-1],"split_conditions":[5E-1,1.6212354E0,2.3070996E0],"split_indices":[0,0,0],"split_type":[0,0,0],"sum_hessian":[8E3,4.012E3,3.988E3],"tree_param":{"num_deleted":"0","num_feature":"2","num_nodes":"3","size_leaf_vector":"0"}},{"base_weights":[4.601056E0,3.7830825E0,5.3835187E0],"categories":[],"categories_nodes":[],"categories_segments":[],"categories_sizes":[],"default_left":[1,0,0],"id":10,"left_children":[1,-1,-1],"loss_changes":[3.6530469E3,0E0,0E0],"parents":[2147483647,0,0],"right_children":[2,-1,-1],"split_conditions":[5E-1,1.1349248E0,1.6150557E0],"split_indices":[0,0,0],"split_type":[0,0,0],"sum_hessian":[8E3,4.012E3,3.988E3],"tree_param":{"num_deleted":"0","num_feature":"2","num_nodes":"3","size_leaf_vector":"0"}},{"base_weights":[3.2268746E0,2.1475167E0,5.9404745E0,-6.4013183E-1,2.758653E0,5.584591E0,1.8647747E1,-2.0649493E0,-0E0,1.7404401E0,3.0271692E0,4.521782E0,7.0645394E0,-0E0,8.031511E-2,2.2012951E0,-0E0,3.0621002E0,-0E0,4.600408E0,-0E0,7.085674E0,-0E0,-0E0,-2.5463555E-2,9.74651E-1,-0E0],"categories":[],"categories_nodes":[],"categories_segments":[],"categories_sizes":[],"default_left":[1,1,1,1,1,1,0,0,1,1,1,1,1,1,1,0,0,0,0,0,0,0,0,1,1,0,0],"id":11,"left_children":[1,3,5,7,9,11,-1,-1,13,15,17,19,21,-1,25,-1,-1,-1,-1,-1,-1,-1,-1,-1,-1,-1,-1],"loss_changes":[2.2140734E4,1.0161699E4,6.2008125E3,1.0801055E3,5.4528125E2,1.5811797E3,0E0,0E0,2.5124295E0,1.1214304E3,4.7748828E2,1.3320508E2,3.3085938E0,1.552853E-1,8.725039E1,0E0,0E0,0E0,0E0,0E0,0E0,0E0,0E0,0E0,0E0,0E0,0E0],"parents":[2147483647,0,0,1,1,2,2,3,3,4,4,5,5,8,8,9,9,10,10,11,11,12,12,13,13,14,14],"right_children":[2,4,6,8,10,12,-1,-1,14,16,18,20,22,-1,26,-1,-1,-1,-1,-1,-1,-1,-1,-1,-1,-1,-1],"split_conditions":[6.884854E1,6.1800377E1,7.557594E1,6.0036423E1,6.3715797E1,7.122797E1,5.594324E0,-6.194848E-1,6.08479E1,6.340206E1,6.878101E1,7.112722E1,7.544869E1,-0E0,6.11091E1,6.603886E-1,-0E0,9.1863006E-1,-0E0,1.3801224E0,-0E0,2.1257021E0,-0E0,-0E0,-7.639067E-3,2.923953E-1,-0E0],"split_indices":[1,1,1,1,1,1,0,0,1,1,1,1,1,1,1,0,0,0,0,0,0,0,0,2147483647,2147483647,0,0],"split_type":[0,0,0,0,0,0,0,0,0,0,0,0,0,0,0,0,0,0,0,0,0,0,0,0,0,0,0],"sum_hessian":[8E3,5.766E3,2.234E3,9.9E2,4.776E3,2.186E3,4.8E1,3.48E2,6.42E2,1.121E3,3.655E3,1.336E3,8.5E2,2.53E2,3.89E2,9.32E2,1.89E2,3.623E3,3.2E1,1.297E3,3.9E1,8.45E2,5E0,1.4E1,2.39E2,9.4E1,2.95E2],"tree_param":{"num_deleted":"2","num_feature":"2","num_nodes":"27","size_leaf_vector":"0"}},{"base_weights":[2.2756417E0],"categories":[],"categories_nodes":[],"categories_segments":[],"categories_sizes":[],"default_left":[0],"id":12,"left_children":[-1],"loss_changes":[0E0],"parents":[2147483647],"right_children":[-1],"split_conditions":[6.826925E-1],"split_indices":[0],"split_type":[0],"sum_hessian":[8E3],"tree_param":{"num_deleted":"0","num_feature":"2","num_nodes":"1","size_leaf_vector":"0"}},{"base_weights":[1.5929903E0],"categories":[],"categories_nodes":[],"categories_segments":[],"categories_sizes":[],"default_left":[0],"id":13,"left_children":[-1],"loss_changes":[0E0],"parents":[2147483647],"right_children":[-1],"split_conditions":[4.778971E-1],"split_indices":[0],"split_type":[0],"sum_hessian":[8E3],"tree_param":{"num_deleted":"0","num_feature":"2","num_nodes":"1","size_leaf_vector":"0"}},{"base_weights":[1.1151285E0,3.3575776E-1,3.0550258E0,-1.6538129E0,7.6437175E-1,2.6628287E0,8.862787E0,-2.1717017E0,-3.2798764E-1,-0E0,8.920065E-1,1.8228644E0,3.3295226E0,-0E0,-8.128742E-1,-0E0,-4.1083995E-1,9.2167544E-1,-0E0,2.6840105E0,5.0110817E-1,3.372424E0,-0E0,-0E0,6.570813E-3,5.920313E-1,1.216989E0,-0E0,1.400227E0,8.845652E-1,-0E0,1.916676E0,8.062141E-1,1.6618423E0,-0E0,4.414428E-1,2.0646048E0,-4.0889204E-1,-0E0,-0E0,1.49547E0,1.1281554E0,-0E0,3.381612E0,-0E0,1.8754478E-1,-0E0,1.6633364E0,-0E0,-9.3017346E-1,3.9993414E-1,-0E0,7.410705E-1,6.5794915E-1,-0E0],"categories":[],"categories_nodes":[],"categories_segments":[],"categories_sizes":[],"default_left":[1,1,1,1,1,1,0,0,1,1,1,1,1,0,0,1,0,1,0,0,1,0,0,1,1,1,1,0,1,1,1,0,1,0,0,1,1,0,1,0,1,0,1,0,1,0,0,0,0,0,1,0,0,0,0],"id":14,"left_children":[1,3,5,7,9,11,-1,-1,13,15,17,19,21,-1,-1,-1,-1,25,-1,-1,27,-1,-1,-1,-1,29,31,-1,33,35,37,-1,39,-1,-1,41,43,-1,45,-1,47,-1,49,-1,51,-1,-1,-1,-1,-1,53,-1,-1,-1,-1],"loss_changes":[1.15563E4,4.776623E3,3.2455E3,2.5895508E2,5.6584546E2,3.6469434E2,0E0,0E0,1.722062E2,1.5105424E1,1.6887793E2,6.81771E2,2.2961621E2,0E0,0E0,8.785916E-3,0E0,1.182937E2,0E0,0E0,3.9862262E2,0E0,0E0,0E0,0E0,5.106986E2,1.2574829E2,0E0,1.7954144E2,4.6413525E2,3.736635E1,0E0,8.301227E2,0E0,0E0,2.5540866E2,4.4710217E2,0E0,1.1940991E1,0E0,4.5593018E1,0E0,2.6983673E2,0E0,6.123017E1,0E0,0E0,0E0,0E0,0E0,1.3719147E2,0E0,0E0,0E0,0E0],"parents":[2147483647,0,0,1,1,2,2,3,3,4,4,5,5,8,8,9,9,10,10,11,11,12,12,15,15,17,17,20,20,25,25,26,26,28,28,29,29,30,30,32,32,35,35,36,36,38,38,40,40,42,42,44,44,50,50],"right_children":[2,4,6,8,10,12,-1,-1,14,16,18,20,22,-1,-1,-1,-1,26,-1,-1,28,-1,-1,-1,-1,30,32,-1,34,36,38,-1,40,-1,-1,42,44,-1,46,-1,48,-1,50,-1,52,-1,-1,-1,-1,-1,54,-1,-1,-1,-1],"split_conditions":[6.884854E1,6.1735943E1,7.439522E1,6.08479E1,6.2737152E1,7.057266E1,2.6588364E0,-6.5151054E-1,6.0948204E1,6.2598064E1,6.8715836E1,6.968497E1,7.433947E1,-0E0,-2.4386227E-1,-0E0,-1.2325199E-1,6.5938385E1,-0E0,8.052032E-1,7.00766E1,1.0117272E0,-0E0,-0E0,1.9712439E-3,6.512924E1,6.6744415E1,-0E0,7.0549255E1,6.469612E1,6.5448456E1,5.7500285E-1,6.7609474E1,4.985527E-1,-0E0,6.340206E1,6.4905876E1,-1.2266762E-1,6.592383E1,-0E0,6.850577E1,3.3844662E-1,6.369626E1,1.0144837E0,6.500874E1,5.6263436E-2,-0E0,4.9900094E-1,-0E0,-2.7905205E-1,6.450202E1,-0E0,2.2232117E-1,1.9738476E-1,-0E0],"split_indices":[1,1,1,1,1,1,0,0,1,1,1,1,1,0,0,1,0,1,0,0,1,0,0,2147483647,2147483647,1,1,0,1,1,1,0,1,0,0,1,1,0,1,0,1,0,1,0,1,0,0,0,0,0,1,0,0,0,0],"split_type":[0,0,0,0,0,0,0,0,0,0,0,0,0,0,0,0,0,0,0,0,0,0,0,0,0,0,0,0,0,0,0,0,0,0,0,0,0,0,0,0,0,0,0,0,0,0,0,0,0,0,0,0,0,0,0],"sum_hessian":[8E3,5.766E3,2.234E3,9.56E2,4.81E3,2.119E3,1.15E2,6.01E2,3.55E2,5.67E2,4.243E3,1.044E3,1.075E3,3.7E1,3.18E2,4.78E2,8.9E1,4.173E3,7E1,5.59E2,4.85E2,1.068E3,7E0,2.75E2,2.03E2,2.227E3,1.946E3,2.2E2,2.65E2,1.65E3,5.77E2,5.76E2,1.37E3,2.53E2,1.2E1,1.298E3,3.52E2,2.23E2,3.54E2,6.01E2,7.69E2,3.99E2,8.99E2,1.7E2,1.82E2,3.39E2,1.5E1,6.38E2,1.31E2,1.78E2,7.21E2,7.1E1,1.11E2,5.83E2,1.38E2],"tree_param":{"num_deleted":"2","num_feature":"2","num_nodes":"55","size_leaf_vector":"0"}},{"base_weights":[7.999817E-1,1.23468705E-1,1.9599973E0,-1.0804648E0,4.7913602E-1,1.5640433E0,4.8342175E0,-3.1738427E0,-6.7874897E-1,-0E0,5.5388963E-1,1.5700904E0,-0E0,3.313622E0,9.329649E0,-0E0,-7.428494E-1,-0E0,-2.8827322E-1,5.9427094E-1,-0E0,3.3881083E0,-0E0,-0E0,6.570813E-3],"categories":[],"categories_nodes":[],"categories_segments":[],"categories_sizes":[],"default_left":[1,1,1,1,1,1,1,0,1,1,1,0,0,1,0,0,0,1,0,0,0,0,0,1,1],"id":15,"left_children":[1,3,5,7,9,11,13,-1,15,17,19,-1,-1,21,-1,-1,-1,-1,-1,-1,-1,-1,-1,-1,-1],"loss_changes":[5.947121E3,2.1058018E3,2.2343613E3,2.8659998E2,1.7535559E2,3.379297E1,8.068848E0,0E0,7.99816E1,7.4369726E0,1.5500879E2,0E0,0E0,6.714673E1,0E0,0E0,0E0,8.785916E-3,0E0,0E0,0E0,0E0,0E0,0E0,0E0],"parents":[2147483647,0,0,1,1,2,2,3,3,4,4,5,5,6,6,8,8,9,9,10,10,13,13,17,17],"right_children":[2,4,6,8,10,12,14,-1,16,18,20,-1,-1,22,-1,-1,-1,-1,-1,-1,-1,-1,-1,-1,-1],"split_conditions":[6.790909E1,6.195042E1,7.307954E1,5.8500313E1,6.2737152E1,7.305297E1,7.557594E1,-9.5215285E-1,5.862059E1,6.2598064E1,6.7867165E1,4.7102714E-1,-0E0,7.544869E1,2.798895E0,-0E0,-2.2285484E-1,-0E0,-8.6481966E-2,1.7828129E-1,-0E0,1.0164325E0,-0E0,-0E0,1.9712439E-3],"split_indices":[1,1,1,1,1,1,1,0,1,1,1,0,0,1,0,0,0,1,0,0,0,0,0,2147483647,2147483647],"split_type":[0,0,0,0,0,0,0,0,0,0,0,0,0,0,0,0,0,0,0,0,0,0,0,0,0],"sum_hessian":[8E3,5.14E3,2.86E3,1.07E3,4.07E3,2.563E3,2.97E2,1.08E2,9.62E2,4.53E2,3.617E3,2.557E3,6E0,2.49E2,4.8E1,1.4E1,9.48E2,3.64E2,8.9E1,3.581E3,3.6E1,2.44E2,5E0,1.61E2,2.03E2],"tree_param":{"num_deleted":"2","num_feature":"2","num_nodes":"25","size_leaf_vector":"0"}},{"base_weights":[5.620712E-1,8.082499E-1,2.7447703E-1],"categories":[],"categories_nodes":[],"categories_segments":[],"categories_sizes":[],"default_left":[1,0,0],"id":16,"left_children":[1,-1,-1],"loss_changes":[3.9416846E2,0E0,0E0],"parents":[2147483647,0,0],"right_children":[2,-1,-1],"split_conditions":[5E-1,2.4247497E-1,8.234312E-2],"split_indices":[0,0,0],"split_type":[0,0,0],"sum_hessian":[8E3,4.012E3,3.988E3],"tree_param":{"num_deleted":"0","num_feature":"2","num_nodes":"3","size_leaf_vector":"0"}},{"base_weights":[3.994341E-1,5.658023E-1,1.9215079E-1],"categories":[],"categories_nodes":[],"categories_segments":[],"categories_sizes":[],"default_left":[1,0,0],"id":17,"left_children":[1,-1,-1],"loss_changes":[1.5533167E2,0E0,0E0],"parents":[2147483647,0,0],"right_children":[2,-1,-1],"split_conditions":[5E-1,1.6974069E-1,5.764524E-2],"split_indices":[0,0,0],"split_type":[0,0,0],"sum_hessian":[8E3,4.012E3,3.988E3],"tree_param":{"num_deleted":"0","num_feature":"2","num_nodes":"3","size_leaf_vector":"0"}},{"base_weights":[2.855797E-1,3.9608434E-1,1.345102E-1],"categories":[],"categories_nodes":[],"categories_segments":[],"categories_sizes":[],"default_left":[1,0,0],"id":18,"left_children":[1,-1,-1],"loss_changes":[4.9168457E1,0E0,0E0],"parents":[2147483647,0,0],"right_children":[2,-1,-1],"split_conditions":[5E-1,1.1882531E-1,4.0353063E-2],"split_indices":[0,0,0],"split_type":[0,0,0],"sum_hessian":[8E3,4.012E3,3.988E3],"tree_param":{"num_deleted":"0","num_feature":"2","num_nodes":"3","size_leaf_vector":"0"}},{"base_weights":[2.0587595E-1,-2.1990421E-1,1.452895E0,-1.2239381E0,1.2405894E-2,8.2118446E-1,2.6377034E0,-1.9185746E0,-6.4535284E-1,-1.2656169E-1,2.5261512E-1,8.59538E-1,-0E0,2.073193E0,6.3806863E0,-0E0,-7.779469E-1,-0E0,-5.187422E-1,7.8675365E-1,-0E0,1.391956E0,4.5305043E-1,2.104064E0,-0E0,-2.058546E-1,1.0374321E0,-6.7964095E-1,-0E0,-0E0,1.5703586E0,-2.949762E-1,2.7510476E-1,-0E0,1.5191168E0,-5.2689683E-1,9.452927E-1,-0E0,-4.113565E-1,1.7450702E0,-0E0,-0E0,-7.10767E-1,1.3265193E0,-0E0,6.725348E-1,-0E0,-0E0,-5.415894E-1,-0E0,9.7907907E-1,-2.5489068E-2,1.5143104E-1,-1.3042402E0,-0E0,-0E0,3.2623317E-2,-0E0,-3.5982242E-1,8.470414E-1,-0E0,-0E0,-1.2196769E-1,-4.4596583E-1,-0E0,-0E0,-6.99026E-1],"categories":[],"categories_nodes":[],"categories_segments":[],"categories_sizes":[],"default_left":[1,1,1,1,1,1,1,0,1,1,1,1,0,1,0,0,0,1,1,1,1,1,1,0,0,1,1,1,0,1,0,0,1,0,0,1,1,1,1,0,1,1,1,0,0,0,0,1,1,0,0,1,1,0,1,1,1,0,1,0,0,0,0,1,0,0,0],"id":19,"left_children":[1,3,5,7,9,11,13,-1,15,17,19,21,-1,23,-1,-1,-1,25,27,29,31,33,35,-1,-1,37,39,-1,-1,43,-1,-1,45,-1,-1,-1,49,51,53,-1,-1,-1,-1,-1,-1,-1,-1,-1,-1,-1,-1,57,59,-1,61,-1,-1,-1,63,-1,-1,-1,-1,65,-1,-1,-1],"loss_changes":[4.4441123E3,1.5616838E3,1.0442983E3,8.667041E1,1.7489714E2,6.797034E1,3.0114746E1,0E0,1.2448001E2,1.24999084E2,2.2158405E2,1.8302979E1,0E0,3.3810303E1,0E0,0E0,0E0,4.0695276E2,4.688913E1,1.4744614E2,1.2366679E2,2.0859985E0,5.431087E2,0E0,0E0,8.4808014E1,1.7964243E2,1.1938477E0,0E0,7.653206E1,0E0,0E0,1.7811153E2,0E0,0E0,2.6634598E-1,1.4302368E1,8.036324E0,1.5141678E2,0E0,7.928114E-2,0E0,0E0,0E0,0E0,0E0,0E0,0E0,0E0,0E0,0E0,3.1426638E1,6.429346E1,0E0,9.617301E0,0E0,0E0,0E0,5.2368107E0,0E0,0E0,0E0,0E0,6.837658E0,0E0,0E0,0E0],"parents":[2147483647,0,0,1,1,2,2,3,3,4,4,5,5,6,6,8,8,9,9,10,10,11,11,13,13,17,17,18,18,19,19,20,20,21,21,22,22,25,25,26,26,27,27,29,29,32,32,35,35,36,36,37,37,38,38,40,40,51,51,52,52,54,54,58,58,63,63],"right_children":[2,4,6,8,10,12,14,-1,16,18,20,22,-1,24,-1,-1,-1,26,28,30,32,34,36,-1,-1,38,40,-1,-1,44,-1,-1,46,-1,-1,-1,50,52,54,-1,-1,-1,-1,-1,-1,-1,-1,-1,-1,-1,-1,58,60,-1,62,-1,-1,-1,64,-1,-1,-1,-1,66,-1,-1,-1],"split_conditions":[6.8990265E1,6.223101E1,7.1804214E1,6.033377E1,6.5938385E1,7.171309E1,7.557594E1,-5.755724E-1,6.0530502E1,6.508862E1,6.6744415E1,6.96814E1,-0E0,7.5273026E1,1.9142059E0,-0E0,-2.3338407E-1,6.469612E1,6.5740105E1,6.646753E1,6.7609474E1,6.908383E1,7.00766E1,6.312192E-1,-0E0,6.340206E1,6.4905876E1,-2.0389229E-1,-0E0,6.6015175E1,4.711076E-1,-8.849286E-2,6.8374664E1,-0E0,4.5573506E-1,-1.5806906E-1,7.015734E1,6.282891E1,6.369626E1,5.2352107E-1,-0E0,-0E0,-2.132301E-1,3.979558E-1,-0E0,2.0176046E-1,-0E0,-0E0,-1.6247682E-1,-0E0,2.9372373E-1,6.2430573E1,6.3008396E1,-3.912721E-1,6.3790966E1,-0E0,9.786995E-3,-0E0,6.2737152E1,2.5411245E-1,-0E0,-0E0,-3.6590308E-2,6.2598064E1,-0E0,-0E0,-2.0970781E-1],"split_indices":[1,1,1,1,1,1,1,0,1,1,1,1,0,1,0,0,0,1,1,1,1,1,1,0,0,1,1,1,0,1,0,0,1,0,0,1,1,1,1,0,1,2147483647,2147483647,0,0,0,0,2147483647,2147483647,0,0,1,1,0,1,2147483647,2147483647,0,1,0,0,0,0,1,0,0,0],"split_type":[0,0,0,0,0,0,0,0,0,0,0,0,0,0,0,0,0,0,0,0,0,0,0,0,0,0,0,0,0,0,0,0,0,0,0,0,0,0,0,0,0,0,0,0,0,0,0,0,0,0,0,0,0,0,0,0,0,0,0,0,0,0,0,0,0,0,0],"sum_hessian":[8E3,5.869E3,2.131E3,1.231E3,4.638E3,1.478E3,6.53E2,4.34E2,7.97E2,2.519E3,2.119E3,1.441E3,3.7E1,6.05E2,4.8E1,4.3E1,7.54E2,1.905E3,6.14E2,5.76E2,1.543E3,4.54E2,9.87E2,5.95E2,1E1,1.59E3,3.15E2,4.59E2,1.55E2,3.72E2,2.04E2,6.01E2,9.42E2,7.2E1,3.82E2,2.22E2,7.65E2,6.91E2,8.99E2,1.7E2,1.45E2,3.7E1,4.22E2,4.3E1,3.29E2,5.51E2,3.91E2,1.1E1,2.11E2,3.7E1,7.28E2,3.51E2,3.4E2,1.78E2,7.21E2,7.1E1,7.4E1,1.07E2,2.44E2,1E2,2.4E2,7.5E1,6.46E2,1.85E2,5.9E1,9.6E1,8.9E1],"tree_param":{"num_deleted":"6","num_feature":"2","num_nodes":"67","size_leaf_vector":"0"}},{"base_weights":[1.4655338E-1,-1.6101044E-1,1.0680538E0,-8.0443317E-1,2.7953206E-2,5.312311E-1,1.8471718E0,-1.2313281E0,-3.5329622E-1,-3.7577912E-2,1.7183495E-1,6.2843335E-1,-0E0,-0E0,-5.2642334E-1,-0E0,-3.8221502E-1,5.9036034E-1,-0E0,-7.457162E-2,6.6342527E-1,-5.071168E-1,-0E0,-0E0,1.1003786E0,-2.0656298E-1,1.5714777E-1,3.41451E-1,-2.7230507E-1,1.2230693E0,-0E0,4.636312E-1,-0E0,4.709481E-1,-0E0,-0E0,5.941675E-1,-4.6824202E-1,-0E0,-0E0,1.2196487E0,6.0728896E-1,-0E0,-0E0,-8.84183E-1,-0E0,-8.5405E-2,1.8394065E-1,-0E0,-9.140544E-1,-0E0],"categories":[],"categories_nodes":[],"categories_segments":[],"categories_sizes":[],"default_left":[1,1,1,1,1,1,0,0,1,1,1,0,0,0,0,1,1,1,1,1,1,0,0,1,0,0,1,1,1,0,0,0,0,1,0,0,1,1,1,1,0,1,1,0,1,0,0,0,0,1,1],"id":20,"left_children":[1,3,5,7,9,11,-1,-1,13,15,17,-1,-1,-1,-1,19,21,23,25,27,29,-1,-1,31,-1,-1,33,35,37,-1,-1,-1,-1,39,-1,-1,-1,43,45,47,-1,-1,-1,-1,-1,-1,-1,-1,-1,-1,-1],"loss_changes":[2.411806E3,8.3710486E2,5.128435E2,4.1237E1,6.2331963E1,1.3146442E2,0E0,0E0,1.3024521E2,8.1219505E1,1.3833951E2,0E0,0E0,0E0,0E0,1.6236453E2,2.4286423E1,4.6684204E1,4.8939903E1,9.5867676E1,9.989607E1,0E0,0E0,4.0517242E1,0E0,0E0,9.904148E1,1.6882378E1,9.67308E0,0E0,0E0,0E0,0E0,2.8657997E1,0E0,0E0,1.09054565E-1,5.397499E1,4.7155266E0,1.3685672E1,0E0,0E0,0E0,0E0,9.88327E-1,0E0,0E0,0E0,0E0,0E0,0E0],"parents":[2147483647,0,0,1,1,2,2,3,3,4,4,5,5,8,8,9,9,10,10,15,15,16,16,17,17,18,18,19,19,20,20,23,23,26,26,27,27,28,28,33,33,36,36,37,37,38,38,39,39,44,44],"right_children":[2,4,6,8,10,12,-1,-1,14,16,18,-1,-1,-1,-1,20,22,24,26,28,30,-1,-1,32,-1,-1,34,36,38,-1,-1,-1,-1,40,-1,-1,-1,44,46,48,-1,-1,-1,-1,-1,-1,-1,-1,-1,-1,-1],"split_conditions":[6.8990265E1,6.2737152E1,7.158681E1,6.08479E1,6.5938385E1,7.143706E1,5.5415154E-1,-3.6939844E-1,6.0948204E1,6.512924E1,6.6744415E1,1.8853001E-1,-0E0,-0E0,-1.57927E-1,6.469612E1,6.5740105E1,6.646753E1,6.7609474E1,6.3008396E1,6.4905876E1,-1.5213504E-1,-0E0,6.6216194E1,3.301136E-1,-6.1968897E-2,6.8374664E1,6.282891E1,6.3715797E1,3.669208E-1,-0E0,1.3908938E-1,-0E0,6.8238525E1,-0E0,-0E0,1.7825025E-1,6.340206E1,6.3790966E1,6.8173584E1,3.6589462E-1,1.821867E-1,-0E0,-0E0,-2.652549E-1,-0E0,-2.5621502E-2,5.5182196E-2,-0E0,-2.7421632E-1,-0E0],"split_indices":[1,1,1,1,1,1,0,0,1,1,1,0,0,0,0,1,1,1,1,1,1,0,0,1,0,0,1,1,1,0,0,0,0,1,0,0,1,1,1,1,0,2147483647,2147483647,0,1,0,0,0,0,2147483647,2147483647],"split_type":[0,0,0,0,0,0,0,0,0,0,0,0,0,0,0,0,0,0,0,0,0,0,0,0,0,0,0,0,0,0,0,0,0,0,0,0,0,0,0,0,0,0,0,0,0,0,0,0,0,0,0],"sum_hessian":[8E3,5.869E3,2.131E3,1.523E3,4.346E3,1.383E3,7.48E2,6.01E2,9.22E2,2.227E3,2.119E3,1.321E3,6.2E1,3.7E1,8.85E2,1.65E3,5.77E2,5.76E2,1.543E3,1.298E3,3.52E2,4.22E2,1.55E2,3.72E2,2.04E2,6.01E2,9.42E2,1.59E2,1.139E3,1.7E2,1.82E2,1.88E2,1.84E2,5.51E2,3.91E2,5.9E1,1E2,4.29E2,7.1E2,4.5E2,1.01E2,9.6E1,4E0,2.4E2,1.89E2,6.4E1,6.46E2,4.04E2,4.6E1,1.78E2,1.1E1],"tree_param":{"num_deleted":"4","num_feature":"2","num_nodes":"51","size_leaf_vector":"0"}},{"base_weights":[1.007308E-1,4.483902E-1,-2.0916831E-1],"categories":[],"categories_nodes":[],"categories_segments":[],"categories_sizes":[],"default_left":[1,0,0],"id":21,"left_children":[1,-1,-1],"loss_changes":[9.000503E2,0E0,0E0],"parents":[2147483647,0,0],"right_children":[2,-1,-1],"split_conditions":[5E-1,1.3451706E-1,-6.2750496E-2],"split_indices":[0,0,0],"split_type":[0,0,0],"sum_hessian":[8E3,4.012E3,3.988E3],"tree_param":{"num_deleted":"0","num_feature":"2","num_nodes":"3","size_leaf_vector":"0"}},{"base_weights":[6.45496E-2,-2.6757246E-1,6.487375E-1,-6.9147E-1,-3.1138778E-2,4.4008946E-1,2.0605035E0,-1.6842921E0,-4.532314E-1,1.1166128E-1,-8.714267E-2,4.7896263E-1,-0E0,-0E0,-5.221017E-1,-0E0,2.9666716E-1,-3.1829825E-1,-0E0,-0E0,5.0155264E-1,3.0837747E-1,-0E0,7.693502E-1,-2.6486514E-2,1.5648434E-1,-0E0,-2.754771E-1,-0E0,-0E0,-4.232276E-1,2.826319E-1,-1.5213852E-1,-5.9426403E-1,-0E0,-0E0,7.3622775E-1,-2.460143E-1,-0E0,-0E0,-6.6946E-2,1.0839455E-1,-0E0,-0E0,-2.515808E-1,-0E0,2.6295248E-1,7.2153497E-1,-0E0],"categories":[],"categories_nodes":[],"categories_segments":[],"categories_sizes":[],"default_left":[1,1,1,1,1,1,0,0,1,1,1,1,0,0,0,0,1,0,1,1,0,1,1,0,1,0,0,1,1,0,1,1,1,0,1,1,0,1,0,1,1,1,0,1,1,0,1,0,0],"id":22,"left_children":[1,3,5,7,9,11,-1,-1,13,15,17,19,-1,-1,-1,-1,-1,-1,23,25,-1,-1,-1,-1,27,-1,-1,29,31,-1,33,35,37,-1,-1,41,-1,-1,-1,-1,-1,45,-1,-1,-1,-1,47,-1,-1],"loss_changes":[1.61296E3,3.7894598E2,5.072937E2,2.0107239E1,2.3333286E1,7.579492E1,0E0,0E0,4.9818268E1,6.855909E0,9.0800545E1,5.658325E0,0E0,0E0,0E0,0E0,3.316307E-1,0E0,1.0227309E2,4.3463254E0,0E0,0E0,0E0,0E0,4.4515007E1,0E0,0E0,2.980405E1,7.235445E1,0E0,3.2488174E0,5.240922E1,3.235611E0,0E0,6.4310086E-1,4.0358253E0,0E0,2.788906E-1,0E0,0E0,0E0,8.997314E0,0E0,0E0,0E0,0E0,9.609711E0,0E0,0E0],"parents":[2147483647,0,0,1,1,2,2,3,3,4,4,5,5,8,8,9,9,10,10,11,11,16,16,18,18,19,19,24,24,27,27,28,28,30,30,31,31,32,32,34,34,35,35,37,37,41,41,46,46],"right_children":[2,4,6,8,10,12,-1,-1,14,16,18,20,-1,-1,-1,-1,-1,-1,24,26,-1,-1,-1,-1,28,-1,-1,30,32,-1,34,36,38,-1,-1,42,-1,-1,-1,-1,-1,46,-1,-1,-1,-1,48,-1,-1],"split_conditions":[6.7609474E1,6.2737152E1,7.307954E1,5.8968094E1,6.3008396E1,7.257925E1,6.1815107E-1,-5.0528765E-1,5.9905033E1,6.282891E1,6.469612E1,6.790909E1,-0E0,-0E0,-1.5663052E-1,-0E0,8.900015E-2,-9.548948E-2,6.4905876E1,6.7867165E1,1.504658E-1,9.251325E-2,-0E0,2.3080505E-1,6.5740105E1,4.6945304E-2,-0E0,6.512924E1,6.6744415E1,-0E0,6.5448456E1,6.646753E1,6.717825E1,-1.7827922E-1,-0E0,6.6216194E1,2.2086833E-1,-7.380429E-2,-0E0,-0E0,-2.00838E-2,6.5938385E1,-0E0,-0E0,-7.547425E-2,-0E0,6.6015175E1,2.164605E-1,-0E0],"split_indices":[1,1,1,1,1,1,0,0,1,1,1,1,0,0,0,0,1,0,1,1,0,2147483647,2147483647,0,1,0,0,1,1,0,1,1,1,0,1,1,0,1,0,2147483647,2147483647,1,0,2147483647,2147483647,0,1,0,0],"split_type":[0,0,0,0,0,0,0,0,0,0,0,0,0,0,0,0,0,0,0,0,0,0,0,0,0,0,0,0,0,0,0,0,0,0,0,0,0,0,0,0,0,0,0,0,0,0,0,0,0],"sum_hessian":[8E3,4.927E3,3.073E3,1.523E3,3.404E3,2.776E3,2.97E2,1.65E2,1.358E3,1.59E2,3.245E3,2.674E3,1.02E2,1.52E2,1.206E3,5.9E1,1E2,1.139E3,2.106E3,2.13E2,2.461E3,9.6E1,4E0,1.7E2,1.936E3,1.77E2,3.6E1,6.04E2,1.332E3,1.82E2,4.22E2,7.31E2,6.01E2,2.23E2,1.99E2,5.27E2,2.04E2,2.83E2,3.18E2,5.6E1,1.43E2,3.43E2,1.84E2,8E0,2.75E2,1.55E2,1.88E2,4.3E1,1.45E2],"tree_param":{"num_deleted":"6","num_feature":"2","num_nodes":"49","size_leaf_vector":"0"}},{"base_weights":[3.6673155E-2,3.837398E-1,-2.7262172E-1],"categories":[],"categories_nodes":[],"categories_segments":[],"categories_sizes":[],"default_left":[1,0,0],"id":23,"left_children":[1,-1,-1],"loss_changes":[8.765397E2,0E0,0E0],"parents":[2147483647,0,0],"right_children":[2,-1,-1],"split_conditions":[5E-1,1.15121946E-1,-8.178652E-2],"split_indices":[0,0,0],"split_type":[0,0,0],"sum_hessian":[8E3,4.012E3,3.988E3],"tree_param":{"num_deleted":"0","num_feature":"2","num_nodes":"3","size_leaf_vector":"0"}},{"base_weights":[1.9709745E-2,2.6862866E-1,-1.9084473E-1],"categories":[],"categories_nodes":[],"categories_segments":[],"categories_sizes":[],"default_left":[1,0,0],"id":24,"left_children":[1,-1,-1],"loss_changes":[4.317066E2,0E0,0E0],"parents":[2147483647,0,0],"right_children":[2,-1,-1],"split_conditions":[5E-1,8.05886E-2,-5.725342E-2],"split_indices":[0,0,0],"split_type":[0,0,0],"sum_hessian":[8E3,4.012E3,3.988E3],"tree_param":{"num_deleted":"0","num_feature":"2","num_nodes":"3","size_leaf_vector":"0"}},{"base_weights":[7.837239E-3,1.8805459E-1,-1.3360082E-1],"categories":[],"categories_nodes":[],"categories_segments":[],"categories_sizes":[],"default_left":[1,0,0],"id":25,"left_children":[1,-1,-1],"loss_changes":[2.1259984E2,0E0,0E0],"parents":[2147483647,0,0],"right_children":[2,-1,-1],"split_conditions":[5E-1,5.641638E-2,-4.0080246E-2],"split_indices":[0,0,0],"split_type":[0,0,0],"sum_hessian":[8E3,4.012E3,3.988E3],"tree_param":{"num_deleted":"0","num_feature":"2","num_nodes":"3","size_leaf_vector":"0"}},{"base_weights":[-0E0,1.316475E-1,-9.352093E-2],"categories":[],"categories_nodes":[],"categories_segments":[],"categories_sizes":[],"default_left":[1,0,0],"id":26,"left_children":[1,-1,-1],"loss_changes":[1.0442478E2,0E0,0E0],"parents":[2147483647,0,0],"right_children":[2,-1,-1],"split_conditions":[5E-1,3.949425E-2,-2.805628E-2],"split_indices":[0,0,0],"split_type":[0,0,0],"sum_hessian":[8E3,4.012E3,3.988E3],"tree_param":{"num_deleted":"0","num_feature":"2","num_nodes":"3","size_leaf_vector":"0"}},{"base_weights":[-0E0,-5.007689E-1,4.6743336E-1,-9.287591E-1,-2.9729146E-1,1.9166267E-1,1.0854195E0,-0E0,-3.3307555E-1,2.7417102E-1,-0E0,8.58547E-1,4.8489347E0,-4.1600004E-1,-1.5642721E-3,7.403031E-2,8.548193E-1,-4.891017E-1,-0E0,8.601414E-1,-0E0,1.9166967E-1,-3.568453E-1,1.5168287E-1,-0E0,-0E0,-5.234428E-1,1.525445E-1,-0E0,3.6546895E-1,-0E0,-4.3400943E-1,-0E0,-0E0,3.5001042E-1,-0E0,6.3910955E-1,-0E0,-4.360602E-1,2.1172643E-1,-9.050989E-2,-0E0,4.644739E-1,-1.7749594E-1,-0E0,3.683087E-1,-0E0,4.7621638E-1,-0E0],"categories":[],"categories_nodes":[],"categories_segments":[],"categories_sizes":[],"default_left":[1,1,1,0,1,1,1,0,1,1,1,1,0,0,1,1,0,1,1,1,1,1,1,1,0,1,1,0,0,1,0,1,0,1,0,0,0,1,1,1,1,1,1,0,0,0,0,1,1],"id":27,"left_children":[1,3,5,-1,7,9,11,-1,13,15,17,-1,-1,-1,21,23,-1,-1,27,-1,-1,29,31,33,-1,-1,-1,-1,-1,35,-1,-1,-1,39,-1,-1,-1,-1,-1,41,43,45,-1,-1,-1,-1,-1,-1,-1],"loss_changes":[1.8692161E3,1.3153857E2,5.212208E2,0E0,5.5380905E1,7.907937E1,5.8278687E1,0E0,8.53183E0,1.5158322E2,5.274637E1,8.093262E-2,0E0,0E0,9.0108475E1,2.8152779E1,0E0,5.431442E-1,6.340857E0,0E0,0E0,1.1292166E1,8.486435E0,2.7548233E1,0E0,0E0,0E0,0E0,0E0,1.2556601E1,0E0,2.5479126E-1,0E0,3.1079985E1,0E0,0E0,0E0,0E0,0E0,1.9640642E1,3.801044E0,5.899841E0,5.329399E-1,0E0,0E0,0E0,0E0,0E0,0E0],"parents":[2147483647,0,0,1,1,2,2,4,4,5,5,6,6,8,8,9,9,10,10,11,11,14,14,15,15,17,17,18,18,21,21,22,22,23,23,29,29,31,31,33,33,39,39,40,40,41,41,42,42],"right_children":[2,4,6,-1,8,10,12,-1,14,16,18,-1,-1,-1,22,24,-1,-1,28,-1,-1,30,32,34,-1,-1,-1,-1,-1,36,-1,-1,-1,40,-1,-1,-1,-1,-1,42,44,46,-1,-1,-1,-1,-1,-1,-1],"split_conditions":[6.5938385E1,6.1735943E1,7.0713066E1,-2.7862775E-1,6.186609E1,6.968497E1,7.64633E1,-0E0,6.469612E1,6.8990265E1,7.00766E1,2.575641E-1,1.4546804E0,-1.2480002E-1,6.508147E1,6.8374664E1,2.564458E-1,-1.4673051E-1,7.0600555E1,2.5804242E-1,-0E0,6.4905876E1,6.5740105E1,6.761357E1,-0E0,-0E0,-1.5703285E-1,4.576335E-2,-0E0,6.479491E1,-0E0,-1.3020283E-1,-0E0,6.675465E1,1.0500313E-1,-0E0,1.9173287E-1,-0E0,-1.3081807E-1,6.646753E1,6.717825E1,6.6015175E1,1.3934217E-1,-5.3248785E-2,-0E0,1.1049261E-1,-0E0,1.4286491E-1,-0E0],"split_indices":[1,1,1,0,1,1,1,0,1,1,1,1,0,0,1,1,0,1,1,2147483647,2147483647,1,1,1,0,2147483647,2147483647,0,0,1,0,1,0,1,0,0,0,2147483647,2147483647,1,1,1,1,0,0,0,0,2147483647,2147483647],"split_type":[0,0,0,0,0,0,0,0,0,0,0,0,0,0,0,0,0,0,0,0,0,0,0,0,0,0,0,0,0,0,0,0,0,0,0,0,0,0,0,0,0,0,0,0,0,0,0,0,0],"sum_hessian":[8E3,3.75E3,4.25E3,9.56E2,2.794E3,3.117E3,1.133E3,6.9E1,2.725E3,2.575E3,5.42E2,1.109E3,2.4E1,1.796E3,9.29E2,2.119E3,4.56E2,2.2E2,3.22E2,1.105E3,4E0,3.12E2,6.17E2,1.728E3,3.91E2,2.6E1,1.94E2,2.72E2,5E1,1.7E2,1.42E2,4.62E2,1.55E2,1.179E3,5.49E2,8.4E1,8.6E1,3E0,4.59E2,5.84E2,5.95E2,3.72E2,2.12E2,2.75E2,3.2E2,4.3E1,3.29E2,2.04E2,8E0],"tree_param":{"num_deleted":"8","num_feature":"2","num_nodes":"49","size_leaf_vector":"0"}},{"base_weights":[-0E0,-2.6261055E-1,4.6915033E-1,-4.868382E-1,-3.1483434E-3,2.164422E-1,8.9773834E-1,-0E0,-6.1559256E-2,2.7022353E-1,-0E0,-0E0,1.3768235E-1,-3.0599657E-1,-0E0,-0E0,2.9804072E-1,-0E0,-1.9387761E-1,2.687581E-1,-0E0,-0E0,-3.227001E-1,9.443987E-2,-6.6584416E-2,7.223963E-2,-0E0,3.9853737E-1,-0E0,-0E0,4.48475E-1,-0E0,3.2545373E-1,-2.1090513E-1,-0E0,-0E0,5.5499405E-1,-3.3912364E-1,3.755697E-1,5.5581665E-1,-0E0,4.5034084E-1,-0E0,-0E0,-3.7708598E-1,-0E0,3.9772615E-1,-0E0,1.8179388E-1,-0E0,7.05332E-1,-4.8486283E-1,-0E0,1.9664194E-1,-0E0],"categories":[],"categories_nodes":[],"categories_segments":[],"categories_sizes":[],"default_left":[1,1,1,0,1,1,0,1,1,1,0,1,1,1,1,1,1,0,0,1,0,1,1,1,1,1,1,1,1,0,0,0,1,0,0,1,0,1,1,0,1,1,0,0,1,0,0,0,1,0,0,0,0,1,1],"id":28,"left_children":[1,3,5,-1,7,9,-1,11,13,15,-1,17,19,-1,23,-1,27,-1,-1,29,-1,-1,-1,31,33,-1,-1,35,37,-1,-1,-1,39,-1,-1,41,-1,43,45,-1,47,49,-1,-1,51,-1,-1,-1,-1,-1,-1,-1,-1,-1,-1],"loss_changes":[1.0163031E3,2.0876599E2,1.5563239E2,0E0,6.763032E0,5.183854E1,0E0,5.9806147E0,3.6235157E1,1.1365662E0,0E0,5.205736E0,6.3342266E0,9.723358E-1,9.226694E0,9.2625695E-1,9.953293E0,0E0,0E0,5.081418E0,0E0,0E0,0E0,1.59118E1,2.8618348E0,0E0,0E0,7.248581E0,9.364459E1,0E0,0E0,0E0,5.1399193E0,0E0,0E0,3.8633224E1,0E0,2.0679264E0,2.4138947E0,0E0,3.0567925E0,1.1858704E1,0E0,0E0,2.316845E0,0E0,0E0,0E0,2.1037531E-1,0E0,0E0,0E0,0E0,0E0,0E0],"parents":[2147483647,0,0,1,1,2,2,4,4,5,5,7,7,8,8,9,9,11,11,12,12,13,13,14,14,15,15,16,16,19,19,23,23,24,24,27,27,28,28,32,32,35,35,37,37,38,38,40,40,41,41,44,44,48,48],"right_children":[2,4,6,-1,8,10,-1,12,14,16,-1,18,20,-1,24,-1,28,-1,-1,30,-1,-1,-1,32,34,-1,-1,36,38,-1,-1,-1,40,-1,-1,42,-1,44,46,-1,48,50,-1,-1,52,-1,-1,-1,-1,-1,-1,-1,-1,-1,-1],"split_conditions":[6.7609474E1,6.396354E1,7.119999E1,-1.4605147E-1,6.508862E1,7.105139E1,2.693215E-1,6.469612E1,6.5740105E1,6.811586E1,-0E0,6.450202E1,6.4905876E1,-9.1798976E-2,6.675465E1,-0E0,6.96814E1,-0E0,-5.8163285E-2,6.479491E1,-0E0,-0E0,-9.6810035E-2,6.646753E1,6.6955185E1,2.167189E-2,-0E0,6.884854E1,7.00766E1,-0E0,1.3454251E-1,-0E0,6.659656E1,-6.3271545E-2,-0E0,6.8374664E1,1.6649821E-1,6.973576E1,7.015734E1,1.66745E-1,6.664329E1,6.8238525E1,-0E0,-0E0,6.995006E1,-0E0,1.1931785E-1,-0E0,5.4538168E-2,-0E0,2.115996E-1,-1.4545886E-1,-0E0,5.8992583E-2,-0E0],"split_indices":[1,1,1,0,1,1,0,1,1,1,0,1,1,1,1,1,1,0,0,1,0,2147483647,2147483647,1,1,2147483647,2147483647,1,1,0,0,0,1,0,0,1,0,1,1,0,1,1,0,0,1,0,0,0,1,0,0,0,0,2147483647,2147483647],"split_type":[0,0,0,0,0,0,0,0,0,0,0,0,0,0,0,0,0,0,0,0,0,0,0,0,0,0,0,0,0,0,0,0,0,0,0,0,0,0,0,0,0,0,0,0,0,0,0,0,0,0,0,0,0,0,0],"sum_hessian":[8E3,4.927E3,3.073E3,2.314E3,2.613E3,2.167E3,9.06E2,8.22E2,1.791E3,2.1E3,6.7E1,5.07E2,3.15E2,4.59E2,1.332E3,3.61E2,1.739E3,3.69E2,1.38E2,1.7E2,1.45E2,3.7E1,4.22E2,7.39E2,5.93E2,1.77E2,1.84E2,1.035E3,7.04E2,8.4E1,8.6E1,5.27E2,2.12E2,1.23E2,4.7E2,4.78E2,5.57E2,2.22E2,4.82E2,8.9E1,1.23E2,1.9E2,2.88E2,2.8E1,1.94E2,3.7E1,4.45E2,3.1E1,9.2E1,8.9E1,1.01E2,1.27E2,6.7E1,8.4E1,8E0],"tree_param":{"num_deleted":"6","num_feature":"2","num_nodes":"55","size_leaf_vector":"0"}},{"base_weights":[-0E0,-1.8864109E-1,3.4136713E-1,-8.3803636E-1,-1.04482755E-1,2.5307217E-1,2.4329777E0,-1.5175545E-1,-0E0,2.675611E-1,-0E0,-0E0,-1.8908398E-1,1.2114541E-1,-5.3152144E-2,-0E0,2.856388E-1,-2.3114152E-1,-0E0,-0E0,2.4223474E-1,-1.4068085E-1,-0E0,7.223963E-2,-0E0,8.794325E-2,-2.0298667E-1,2.5907147E-1,-0E0,3.8998663E-1,-0E0,-0E0,-1.4787939E-1,2.00895E-1,-0E0,-0E0,1.4242503E-1,-0E0,3.1470463E-1],"categories":[],"categories_nodes":[],"categories_segments":[],"categories_sizes":[],"default_left":[1,1,1,0,1,1,0,1,1,1,0,0,1,1,1,1,1,0,1,1,1,1,1,1,1,1,0,0,0,0,1,1,1,1,0,0,0,0,0],"id":29,"left_children":[1,3,5,-1,7,9,-1,11,13,-1,-1,-1,17,19,-1,-1,-1,-1,25,27,29,-1,-1,-1,-1,33,-1,-1,-1,-1,35,-1,-1,37,-1,-1,-1,-1,-1],"loss_changes":[5.3350586E2,1.1939375E2,1.4022324E2,0E0,2.836575E1,2.0079575E1,0E0,3.0883827E1,1.0160036E1,3.9282227E-1,0E0,0E0,4.3685837E0,3.5384254E0,9.030781E-1,9.2625695E-1,0E0,0E0,2.6520954E1,2.9191434E0,1.6117525E0,9.81915E-2,0E0,0E0,0E0,4.1546965E0,0E0,0E0,0E0,0E0,1.713925E0,0E0,0E0,1.6852694E0,0E0,0E0,0E0,0E0,0E0],"parents":[2147483647,0,0,1,1,2,2,4,4,5,5,7,7,8,8,9,9,12,12,13,13,14,14,15,15,18,18,19,19,20,20,21,21,25,25,30,30,33,33],"right_children":[2,4,6,-1,8,10,-1,12,14,-1,-1,-1,18,20,-1,-1,-1,-1,26,28,30,-1,-1,-1,-1,34,-1,-1,-1,-1,36,-1,-1,38,-1,-1,-1,-1,-1],"split_conditions":[6.7609474E1,6.0036423E1,7.54991E1,-2.5141093E-1,6.5938385E1,7.469658E1,7.298933E-1,6.11091E1,6.6744415E1,8.026834E-2,-0E0,-0E0,6.469612E1,6.646753E1,-1.5945643E-2,-0E0,8.5691646E-2,-6.934246E-2,6.512924E1,6.6015175E1,6.659656E1,-4.2204257E-2,-0E0,2.167189E-2,-0E0,6.4905876E1,-6.0896005E-2,7.772145E-2,-0E0,1.16996E-1,6.664329E1,-0E0,-4.436382E-2,6.479491E1,-0E0,-0E0,4.272751E-2,-0E0,9.4411395E-2],"split_indices":[1,1,1,0,1,1,0,1,1,1,0,0,1,1,1,2147483647,2147483647,0,1,1,1,2147483647,2147483647,2147483647,2147483647,1,0,0,0,0,1,2147483647,2147483647,1,0,0,0,0,0],"split_type":[0,0,0,0,0,0,0,0,0,0,0,0,0,0,0,0,0,0,0,0,0,0,0,0,0,0,0,0,0,0,0,0,0,0,0,0,0,0,0],"sum_hessian":[8E3,4.927E3,3.073E3,3.48E2,4.579E3,3.022E3,5.1E1,3.402E3,1.177E3,2.984E3,3.8E1,3.47E2,3.055E3,5.76E2,6.01E2,3.61E2,2.623E3,2.126E3,9.29E2,3.72E2,2.04E2,1.31E2,4.7E2,1.77E2,1.84E2,3.52E2,5.77E2,4.3E1,3.29E2,8.9E1,1.15E2,8E0,1.23E2,1.7E2,1.82E2,3.1E1,8.4E1,8.4E1,8.6E1],"tree_param":{"num_deleted":"8","num_feature":"2","num_nodes":"39","size_leaf_vector":"0"}},{"base_weights":[-0E0,3.295484E-1,-3.0718625E-1],"categories":[],"categories_nodes":[],"categories_segments":[],"categories_sizes":[],"default_left":[1,0,0],"id":30,"left_children":[1,-1,-1],"loss_changes":[8.1213306E2,0E0,0E0],"parents":[2147483647,0,0],"right_children":[2,-1,-1],"split_conditions":[5E-1,9.886452E-2,-9.2155874E-2],"split_indices":[0,0,0],"split_type":[0,0,0],"sum_hessian":[8E3,4.012E3,3.988E3],"tree_param":{"num_deleted":"0","num_feature":"2","num_nodes":"3","size_leaf_vector":"0"}},{"base_weights":[-0E0,2.3069884E-1,-2.1503454E-1],"categories":[],"categories_nodes":[],"categories_segments":[],"categories_sizes":[],"default_left":[1,0,0],"id":31,"left_children":[1,-1,-1],"loss_changes":[3.9798004E2,0E0,0E0],"parents":[2147483647,0,0],"right_children":[2,-1,-1],"split_conditions":[5E-1,6.920966E-2,-6.451037E-2],"split_indices":[0,0,0],"split_type":[0,0,0],"sum_hessian":[8E3,4.012E3,3.988E3],"tree_param":{"num_deleted":"0","num_feature":"2","num_nodes":"3","size_leaf_vector":"0"}},{"base_weights":[-0E0,-3.061842E-1,2.8109363E-1,-3.8132137E-1,-0E0,7.574635E-2,5.7923883E-1,-0E0,-1.88155E-1,1.6009675E-1,-1.5124989E-1,-3.2377458E-1,-0E0,3.637251E-2,6.797734E-1,-2.9569525E-1,-0E0,-0E0,-1.2243434E-2,9.0497546E-2,-0E0,7.632254E-1,-0E0,-0E0,-3.808713E-1,-0E0,1.5247995E-1,6.539762E-2,-0E0,-0E0,1.6714083E-1,-1.1795099E-1,-0E0,1.0843497E-1,-6.3551604E-3,2.8067467E-1,-0E0,-0E0,8.094709E-2],"categories":[],"categories_nodes":[],"categories_segments":[],"categories_sizes":[],"default_left":[1,1,1,0,1,1,0,0,1,1,1,0,1,1,1,1,0,1,1,1,0,0,0,0,0,1,0,1,1,1,1,0,0,1,1,1,1,1,1],"id":32,"left_children":[1,3,5,-1,7,9,-1,-1,11,13,15,-1,-1,19,21,23,-1,-1,-1,25,-1,-1,-1,-1,-1,27,-1,29,31,-1,-1,-1,-1,-1,-1,-1,-1,-1,-1],"loss_changes":[6.8742145E2,2.860086E1,1.5618744E2,0E0,2.0373766E1,5.569125E1,0E0,0E0,3.0549679E0,5.1844635E1,4.0327716E0,0E0,4.4444755E-2,1.5439361E1,3.1281738E0,2.7686377E0,0E0,0E0,0E0,6.6004143E0,0E0,0E0,0E0,0E0,0E0,2.5083404E0,0E0,3.4278674E0,1.7180843E0,5.482171E-1,1.1138716E0,0E0,0E0,0E0,0E0,0E0,6.060521E-1,0E0,0E0],"parents":[2147483647,0,0,1,1,2,2,4,4,5,5,8,8,9,9,10,10,12,12,13,13,14,14,15,15,19,19,25,25,27,27,28,28,29,29,30,30,36,36],"right_children":[2,4,6,-1,8,10,-1,-1,12,14,16,-1,-1,20,22,24,-1,-1,-1,26,-1,-1,-1,-1,-1,28,-1,30,32,-1,-1,-1,-1,-1,-1,-1,-1,-1,-1],"split_conditions":[6.593622E1,6.4417694E1,7.015734E1,-1.14396416E-1,6.512924E1,6.968497E1,1.7377165E-1,-0E0,6.5448456E1,6.929706E1,6.987689E1,-9.713238E-2,-0E0,6.919113E1,6.960376E1,6.973576E1,-0E0,-0E0,-3.6730303E-3,6.761357E1,-0E0,2.2896762E-1,-0E0,-0E0,-1.14261396E-1,6.675465E1,4.5743987E-2,6.646753E1,6.6955185E1,-0E0,5.014225E-2,-3.53853E-2,-0E0,3.253049E-2,-1.9065482E-3,8.42024E-2,-0E0,-0E0,2.428413E-2],"split_indices":[1,1,1,0,1,1,0,0,1,1,1,0,1,1,1,1,0,2147483647,2147483647,1,0,0,0,0,0,1,0,1,1,1,1,0,0,2147483647,2147483647,2147483647,2147483647,2147483647,2147483647],"split_type":[0,0,0,0,0,0,0,0,0,0,0,0,0,0,0,0,0,0,0,0,0,0,0,0,0,0,0,0,0,0,0,0,0,0,0,0,0,0,0],"sum_hessian":[8E3,3.748E3,4.252E3,2.613E3,1.135E3,2.834E3,1.418E3,5.6E2,5.75E2,2.577E3,2.57E2,2.23E2,3.52E2,2.329E3,2.48E2,1.13E2,1.44E2,5.6E1,2.96E2,2.261E3,6.8E1,2.02E2,4.6E1,2.6E1,8.7E1,1.181E3,1.08E3,5.86E2,5.95E2,3.74E2,2.12E2,1.23E2,4.72E2,4.5E1,3.29E2,8.9E1,1.23E2,3.1E1,9.2E1],"tree_param":{"num_deleted":"8","num_feature":"2","num_nodes":"39","size_leaf_vector":"0"}},{"base_weights":[-0E0,-2.2066286E-1,2.015175E-1,-1.2801496E0,-1.5189144E-1,1.2979652E-1,1.1539123E0,-0E0,-1.6969682E-1,1.5562418E-1,-0E0,-1.7384137E-1,-0E0,-0E0,2.2996603E-1,4.727333E-2,-0E0,-0E0,1.17116705E-1,-8.270703E-2,-0E0,1.0843497E-1,-6.3551604E-3,2.3081033E-1,-0E0,2.7999263E-2,-0E0,-0E0,3.1073803E-2,-0E0,3.9907064E-2],"categories":[],"categories_nodes":[],"categories_segments":[],"categories_sizes":[],"default_left":[1,1,1,0,1,1,0,0,1,1,0,1,1,1,0,1,1,1,1,1,1,1,1,0,1,1,1,1,1,1,1],"id":33,"left_children":[1,3,5,-1,7,9,-1,-1,-1,13,-1,-1,-1,15,-1,17,-1,-1,23,-1,-1,-1,-1,-1,-1,-1,-1,-1,-1,-1,-1],"loss_changes":[3.5521277E2,4.5333893E1,8.629021E1,0E0,1.9957825E1,2.8969475E1,0E0,0E0,5.3964996E-1,3.0104042E1,0E0,0E0,0E0,1.310675E0,0E0,1.6039432E0,8.4474605E-1,5.482171E-1,1.8529627E0,0E0,5.076076E-1,0E0,0E0,0E0,8.930921E-2,3.2927835E-1,0E0,0E0,0E0,0E0,0E0],"parents":[2147483647,0,0,1,1,2,2,4,4,5,5,8,8,9,9,13,13,15,15,16,16,17,17,18,18,20,20,24,24,25,25],"right_children":[2,4,6,-1,8,10,-1,-1,-1,14,-1,-1,-1,16,-1,18,-1,-1,24,-1,-1,-1,-1,-1,-1,-1,-1,-1,-1,-1,-1],"split_conditions":[6.593622E1,5.8219505E1,7.4111206E1,-3.840449E-1,5.862059E1,7.37068E1,3.461737E-1,-0E0,-5.090905E-2,6.8238525E1,-0E0,-5.2152414E-2,-0E0,6.675465E1,6.898981E-2,6.646753E1,-0E0,-0E0,6.659656E1,-2.4812112E-2,-0E0,3.253049E-2,-1.9065482E-3,6.92431E-2,-0E0,8.399779E-3,-0E0,-0E0,9.322141E-3,-0E0,1.197212E-2],"split_indices":[1,1,1,0,1,1,0,0,1,1,0,2147483647,2147483647,1,0,1,1,1,1,2147483647,2147483647,2147483647,2147483647,0,1,2147483647,2147483647,2147483647,2147483647,2147483647,2147483647],"split_type":[0,0,0,0,0,0,0,0,0,0,0,0,0,0,0,0,0,0,0,0,0,0,0,0,0,0,0,0,0,0,0],"sum_hessian":[8E3,3.748E3,4.252E3,8.7E1,3.661E3,4.11E3,1.42E2,3.5E1,3.626E3,4.055E3,5.5E1,3.473E3,1.53E2,1.629E3,2.426E3,5.86E2,1.043E3,3.74E2,2.12E2,1.23E2,9.2E2,4.5E1,3.29E2,8.9E1,1.23E2,6.47E2,2.73E2,3.1E1,9.2E1,1.22E2,5.25E2],"tree_param":{"num_deleted":"12","num_feature":"2","num_nodes":"31","size_leaf_vector":"0"}},{"base_weights":[-0E0,2.7060947E-1,-2.6594043E-1],"categories":[],"categories_nodes":[],"categories_segments":[],"categories_sizes":[],"default_left":[1,0,0],"id":34,"left_children":[1,-1,-1],"loss_changes":[5.7591614E2,0E0,0E0],"parents":[2147483647,0,0],"right_children":[2,-1,-1],"split_conditions":[5E-1,8.1182845E-2,-7.978213E-2],"split_indices":[0,0,0],"split_type":[0,0,0],"sum_hessian":[8E3,4.012E3,3.988E3],"tree_param":{"num_deleted":"0","num_feature":"2","num_nodes":"3","size_leaf_vector":"0"}},{"base_weights":[-0E0,1.8944041E-1,-1.8616207E-1],"categories":[],"categories_nodes":[],"categories_segments":[],"categories_sizes":[],"default_left":[1,0,0],"id":35,"left_children":[1,-1,-1],"loss_changes":[2.8222546E2,0E0,0E0],"parents":[2147483647,0,0],"right_children":[2,-1,-1],"split_conditions":[5E-1,5.6832127E-2,-5.5848625E-2],"split_indices":[0,0,0],"split_type":[0,0,0],"sum_hessian":[8E3,4.012E3,3.988E3],"tree_param":{"num_deleted":"0","num_feature":"2","num_nodes":"3","size_leaf_vector":"0"}},{"base_weights":[-0E0,1.3261068E-1,-1.303218E-1],"categories":[],"categories_nodes":[],"categories_segments":[],"categories_sizes":[],"default_left":[1,0,0],"id":36,"left_children":[1,-1,-1],"loss_changes":[1.383017E2,0E0,0E0],"parents":[2147483647,0,0],"right_children":[2,-1,-1],"split_conditions":[5E-1,3.9783206E-2,-3.909654E-2],"split_indices":[0,0,0],"split_type":[0,0,0],"sum_hessian":[8E3,4.012E3,3.988E3],"tree_param":{"num_deleted":"0","num_feature":"2","num_nodes":"3","size_leaf_vector":"0"}},{"base_weights":[-0E0,-2.6259685E-1,2.813393E-1,-3.4524816E-1,-0E0,2.7455596E-2,3.969679E-1,1.8058052E-2,-9.855759E-2,1.3210881E-1,-0E0,-0E0,8.415783E-2,-1.5913598E-1,-0E0,-0E0,1.8606356E-1,-0E0,-3.837849E-2,1.7420907E-1,-1.0172824E-2,-0E0,4.8800413E-2,-0E0,-3.2452524E-2,-0E0,2.5737094E-2,-6.282483E-2,-0E0],"categories":[],"categories_nodes":[],"categories_segments":[],"categories_sizes":[],"default_left":[1,1,1,0,1,1,0,1,1,1,0,1,1,0,1,1,0,1,1,0,1,1,1,1,1,1,1,1,1],"id":37,"left_children":[1,3,5,-1,7,9,-1,-1,13,15,-1,-1,-1,-1,-1,19,-1,-1,-1,-1,-1,-1,-1,-1,-1,-1,-1,-1,-1],"loss_changes":[5.912648E2,5.2036316E1,4.636914E1,0E0,1.1046463E1,2.2434875E1,0E0,5.5699146E-1,4.317465E0,7.4656086E0,0E0,0E0,0E0,0E0,4.8531255E-1,2.7541296E0,0E0,1.0833996E-1,0E0,0E0,2.2041069E-1,0E0,0E0,6.1266977E-2,2.28876E-1,0E0,0E0,0E0,0E0],"parents":[2147483647,0,0,1,1,2,2,4,4,5,5,7,7,8,8,9,9,14,14,15,15,17,17,20,20,23,23,24,24],"right_children":[2,4,6,-1,8,10,-1,-1,14,16,-1,-1,-1,-1,-1,20,-1,-1,-1,-1,-1,-1,-1,-1,-1,-1,-1,-1,-1],"split_conditions":[6.646753E1,6.469612E1,6.884854E1,-1.03574455E-1,6.4905876E1,6.8374664E1,1.1909037E-1,5.417416E-3,6.5740105E1,6.714004E1,-0E0,-0E0,2.524735E-2,-4.77408E-2,-0E0,6.659656E1,5.5819068E-2,-0E0,-1.1513547E-2,5.2262723E-2,-3.0518475E-3,-0E0,1.46401245E-2,-0E0,-9.7357575E-3,-0E0,7.7211284E-3,-1.884745E-2,-0E0],"split_indices":[1,1,1,0,1,1,0,1,1,1,0,2147483647,2147483647,0,1,1,0,2147483647,2147483647,0,1,2147483647,2147483647,2147483647,2147483647,2147483647,2147483647,2147483647,2147483647],"split_type":[0,0,0,0,0,0,0,0,0,0,0,0,0,0,0,0,0,0,0,0,0,0,0,0,0,0,0,0,0],"sum_hessian":[8E3,4.122E3,3.878E3,2.821E3,1.301E3,1.644E3,2.234E3,1.7E2,1.131E3,1.356E3,2.88E2,8.4E1,8.6E1,6.04E2,5.27E2,4.57E2,8.99E2,1.98E2,3.29E2,8.9E1,3.68E2,1.53E2,4.5E1,1.23E2,2.45E2,3.1E1,9.2E1,1.23E2,1.22E2],"tree_param":{"num_deleted":"12","num_feature":"2","num_nodes":"29","size_leaf_vector":"0"}},{"base_weights":[-0E0,-1.8494803E-1,1.9889353E-1,-3.4719598E-1,-2.8658014E-2,1.4526428E-1,2.1429648E0,1.2339214E-1,-1.0373989E-1,1.5857299E-1,-0E0,-0E0,2.617478E-1,-1.2430452E-1,-0E0,-0E0,1.9224752E-1,-0E0,-1.3374168E-1,-0E0,-3.837849E-2,1.2223544E-1,-0E0,-6.249556E-1,-0E0,-0E0,4.8800413E-2,-1.1316476E-2,-0E0,-0E0,-1.38214E-1,-0E0,-5.9785247E-2,-1.9067836E-1,-0E0,-0E0,2.8772596E-2],"categories":[],"categories_nodes":[],"categories_segments":[],"categories_sizes":[],"default_left":[1,1,1,0,1,1,0,1,1,1,0,0,0,1,1,1,0,0,1,1,1,0,1,0,1,1,1,1,1,0,1,1,1,1,1,1,1],"id":38,"left_children":[1,3,5,-1,7,9,-1,11,13,15,-1,-1,-1,17,-1,21,-1,-1,23,-1,-1,-1,-1,-1,29,-1,-1,-1,-1,-1,-1,-1,-1,-1,-1,-1,-1],"loss_changes":[2.9444092E2,4.4771408E1,4.0386276E1,0E0,2.6557955E1,1.1236183E1,0E0,4.456571E0,3.3020535E0,1.366613E1,0E0,0E0,0E0,3.6693764E-1,4.8531255E-1,1.3371552E0,0E0,0E0,1.5565002E1,1.0833996E-1,0E0,0E0,3.1566504E-2,0E0,8.070926E0,0E0,0E0,4.0983045E-1,0E0,0E0,5.487442E-2,7.657121E-2,0E0,0E0,0E0,0E0,0E0],"parents":[2147483647,0,0,1,1,2,2,4,4,5,5,7,7,8,8,9,9,13,13,14,14,15,15,18,18,19,19,22,22,24,24,27,27,30,30,31,31],"right_children":[2,4,6,-1,8,10,-1,12,14,16,-1,-1,-1,18,-1,22,-1,-1,24,-1,-1,-1,-1,-1,30,-1,-1,-1,-1,-1,-1,-1,-1,-1,-1,-1,-1],"split_conditions":[6.646753E1,6.2737152E1,7.64633E1,-1.041588E-1,6.3008396E1,7.37068E1,6.428895E-1,6.282891E1,6.5740105E1,6.761357E1,-0E0,-0E0,7.852434E-2,6.340206E1,-0E0,6.659656E1,5.767426E-2,-0E0,6.3593582E1,-0E0,-1.1513547E-2,3.6670633E-2,-0E0,-1.8748668E-1,6.512924E1,-0E0,1.46401245E-2,-3.394943E-3,-0E0,-0E0,-4.1464202E-2,-0E0,-1.7935574E-2,-5.720351E-2,-0E0,-0E0,8.631779E-3],"split_indices":[1,1,1,0,1,1,0,1,1,1,0,0,0,1,1,1,0,0,1,2147483647,2147483647,0,1,0,1,2147483647,2147483647,2147483647,2147483647,0,1,2147483647,2147483647,2147483647,2147483647,2147483647,2147483647],"split_type":[0,0,0,0,0,0,0,0,0,0,0,0,0,0,0,0,0,0,0,0,0,0,0,0,0,0,0,0,0,0,0,0,0,0,0,0,0],"sum_hessian":[8E3,4.122E3,3.878E3,1.523E3,2.599E3,3.854E3,2.4E1,1.59E2,2.44E3,3.681E3,1.73E2,5.9E1,1E2,1.913E3,5.27E2,8.07E2,2.874E3,2.4E2,1.673E3,1.98E2,3.29E2,8.9E1,7.18E2,1.16E2,1.557E3,1.53E2,4.5E1,2.46E2,4.72E2,1.135E3,4.22E2,1.23E2,1.23E2,2.23E2,1.99E2,3.1E1,9.2E1],"tree_param":{"num_deleted":"12","num_feature":"2","num_nodes":"37","size_leaf_vector":"0"}},{"base_weights":[-0E0,-1.238947E-1,1.7007111E-1,-4.0133238E-1,-4.1969758E-2,4.7677137E-2,4.451515E-1,-0E0,-8.362687E-2,1.2159619E-1,-0E0,-1.1365884E-1,-0E0,-0E0,3.813548E-1,-2.4865772E-1,-0E0,-0E0,-2.9406892E-2,9.5073916E-2,-0E0,5.382342E-1,-0E0,-0E0,-2.7437165E-1,1.4998995E-1,-0E0,-0E0,5.7740524E-2,-5.9785247E-2,-0E0,-0E0,3.5741723E-1,-0E0,1.5563615E-1,-0E0,-3.837849E-2,3.484755E-2,-0E0,-0E0,4.8800413E-2],"categories":[],"categories_nodes":[],"categories_segments":[],"categories_sizes":[],"default_left":[1,1,1,0,1,1,0,0,1,1,1,0,1,1,1,1,1,1,1,1,0,0,0,1,1,1,0,1,1,1,1,1,0,1,1,1,1,1,1,1,1],"id":39,"left_children":[1,3,5,-1,7,9,-1,-1,11,13,15,-1,-1,19,21,-1,25,-1,-1,31,-1,-1,-1,-1,-1,-1,-1,-1,-1,-1,-1,-1,-1,-1,-1,-1,-1,-1,-1,-1,-1],"loss_changes":[1.6925862E2,3.3594254E1,3.682524E1,0E0,2.0158056E1,1.9500341E1,0E0,0E0,7.7327633E0,1.0054373E1,1.3756869E1,0E0,2.1229357E-1,8.13056E0,3.983284E0,8.845024E-1,1.4206682E1,7.084439E-1,2.2910339E-1,4.834835E0,0E0,0E0,0E0,0E0,0E0,1.934824E-1,0E0,4.8531255E-1,0E0,0E0,0E0,6.3813305E-1,0E0,0E0,0E0,1.0833996E-1,0E0,0E0,0E0,0E0,0E0],"parents":[2147483647,0,0,1,1,2,2,4,4,5,5,8,8,9,9,10,10,12,12,13,13,14,14,15,15,16,16,17,17,18,18,19,19,25,25,27,27,31,31,35,35],"right_children":[2,4,6,-1,8,10,-1,-1,12,14,16,-1,-1,20,22,-1,26,-1,-1,32,-1,-1,-1,-1,-1,-1,-1,-1,-1,-1,-1,-1,-1,-1,-1,-1,-1,-1,-1,-1,-1],"split_conditions":[6.714004E1,6.08479E1,7.1804214E1,-1.2039972E-1,6.11091E1,6.96814E1,1.3354546E-1,-0E0,6.5448456E1,6.929706E1,7.00766E1,-3.4097653E-2,-0E0,6.8374664E1,6.951225E1,-7.459732E-2,7.141332E1,-0E0,-8.822068E-3,6.8238525E1,-0E0,1.6147026E-1,-0E0,-0E0,-8.2311496E-2,4.4996984E-2,-0E0,-0E0,1.7322158E-2,-1.7935574E-2,-0E0,-0E0,1.0722517E-1,-0E0,4.6690844E-2,-0E0,-1.1513547E-2,1.0454265E-2,-0E0,-0E0,1.46401245E-2],"split_indices":[1,1,1,0,1,1,0,0,1,1,1,0,1,1,1,1,1,2147483647,2147483647,1,0,0,0,2147483647,2147483647,1,0,2147483647,2147483647,2147483647,2147483647,1,0,2147483647,2147483647,2147483647,2147483647,2147483647,2147483647,2147483647,2147483647],"split_type":[0,0,0,0,0,0,0,0,0,0,0,0,0,0,0,0,0,0,0,0,0,0,0,0,0,0,0,0,0,0,0,0,0,0,0,0,0,0,0,0,0],"sum_hessian":[8E3,4.579E3,3.421E3,6.01E2,3.978E3,2.768E3,6.53E2,9.4E1,3.884E3,1.744E3,1.024E3,2.701E3,1.183E3,1.498E3,2.46E2,2.22E2,8.02E2,9.38E2,2.45E2,8.99E2,5.99E2,1.37E2,1.09E2,2.8E1,1.94E2,6.31E2,1.71E2,7.26E2,2.12E2,1.23E2,1.22E2,7.98E2,1.01E2,3.7E1,5.94E2,3.97E2,3.29E2,5.25E2,2.73E2,3.52E2,4.5E1],"tree_param":{"num_deleted":"16","num_feature":"2","num_nodes":"41","size_leaf_vector":"0"}},{"base_weights":[-0E0,-8.798036E-2,1.3149491E-1,-7.487731E-1,-3.970919E-2,4.665052E-2,4.8791E-1,-0E0,-6.1495654E-2,8.8748634E-2,-0E0,-8.934278E-2,-0E0,4.6661675E-2,-2.9160915E-2,-0E0,1.1268094E-1,-4.5402117E-2,-0E0,-0E0,-5.1200688E-2,5.7740524E-2,-2.9406892E-2,-2.3731454E-1,-0E0,-5.9785247E-2,-0E0,-0E0,-3.837849E-2,-0E0,4.8800413E-2],"categories":[],"categories_nodes":[],"categories_segments":[],"categories_sizes":[],"default_left":[1,1,1,0,1,1,0,0,1,0,0,0,1,1,1,1,1,1,1,1,1,1,1,1,1,1,1,1,1,1,1],"id":40,"left_children":[1,3,5,-1,7,9,-1,-1,11,-1,-1,-1,13,-1,-1,-1,-1,-1,-1,-1,-1,-1,-1,-1,-1,-1,-1,-1,-1,-1,-1],"loss_changes":[9.460849E1,2.0689842E1,1.8458984E1,0E0,9.035682E0,1.7006376E1,0E0,0E0,3.8716602E0,0E0,0E0,0E0,1.7220048E0,7.269815E-1,9.816159E-1,0E0,0E0,1.566999E-1,9.2073745E-1,0E0,7.487798E-1,0E0,2.2910339E-1,0E0,4.8531255E-1,0E0,0E0,1.0833996E-1,0E0,0E0,0E0],"parents":[2147483647,0,0,1,1,2,2,4,4,5,5,8,8,12,12,13,13,14,14,17,17,18,18,20,20,22,22,24,24,27,27],"right_children":[2,4,6,-1,8,10,-1,-1,12,-1,-1,-1,14,-1,-1,-1,-1,-1,-1,-1,-1,-1,-1,-1,-1,-1,-1,-1,-1,-1,-1],"split_conditions":[6.714004E1,5.8219505E1,7.307954E1,-2.2463194E-1,5.9905033E1,7.257925E1,1.46373E-1,-0E0,6.469612E1,2.6624592E-2,-0E0,-2.6802836E-2,6.4905876E1,1.3998503E-2,-8.748275E-3,-0E0,3.3804283E-2,-1.36206355E-2,-0E0,-0E0,-1.5360207E-2,1.7322158E-2,-8.822068E-3,-7.1194366E-2,-0E0,-1.7935574E-2,-0E0,-0E0,-1.1513547E-2,-0E0,1.46401245E-2],"split_indices":[1,1,1,0,1,1,0,0,1,0,0,0,1,1,1,2147483647,2147483647,2147483647,2147483647,2147483647,2147483647,2147483647,2147483647,2147483647,2147483647,2147483647,2147483647,2147483647,2147483647,2147483647,2147483647],"split_type":[0,0,0,0,0,0,0,0,0,0,0,0,0,0,0,0,0,0,0,0,0,0,0,0,0,0,0,0,0,0,0],"sum_hessian":[8E3,4.579E3,3.421E3,8.7E1,4.492E3,3.124E3,2.97E2,2.3E2,4.262E3,3.022E3,1.02E2,2.504E3,1.758E3,1.7E2,1.588E3,8.4E1,8.6E1,1.131E3,4.57E2,1.82E2,9.49E2,2.12E2,2.45E2,5.7E1,8.92E2,1.23E2,1.22E2,5.63E2,3.29E2,5.18E2,4.5E1],"tree_param":{"num_deleted":"16","num_feature":"2","num_nodes":"31","size_leaf_vector":"0"}},{"base_weights":[-0E0,-7.611366E-2,8.6377665E-2,-1.9235842E-1,-0E0,3.676372E-2,1.0976192E0,-0E0,-5.3630047E-2,5.9206218E-2,-0E0,-0E0,7.378115E-2,-3.1876254E-1,-0E0,-0E0,7.3956266E-2,-0E0,-5.2200213E-2,2.4422549E-1,-0E0,-0E0,-4.2461935E-2,6.646354E-2,-0E0,-0E0,2.747387E-2,-2.2864619E-1,-0E0,-5.1076844E-2,-0E0,-0E0,-5.6712028E-2,9.876834E-2,-0E0,-0E0,-2.9648276E-2,8.5927155E-3,-0E0,-0E0,5.744901E-2],"categories":[],"categories_nodes":[],"categories_segments":[],"categories_sizes":[],"default_left":[1,1,1,0,1,1,0,1,1,1,0,1,1,0,1,1,1,1,1,0,0,1,1,1,1,1,1,0,1,1,1,1,1,1,1,1,1,1,1,1,1],"id":41,"left_children":[1,3,5,-1,7,9,-1,11,13,-1,-1,-1,19,-1,21,-1,-1,-1,-1,-1,-1,-1,27,-1,-1,-1,-1,-1,-1,-1,-1,-1,-1,-1,-1,-1,-1,-1,-1,-1,-1],"loss_changes":[5.2820618E1,1.1509121E1,1.4203724E1,0E0,6.3290176E0,7.7048564E0,0E0,1.8535255E0,1.1807545E1,8.535423E-1,0E0,4.0462214E-1,4.1404705E0,0E0,1.7119507E0,9.386656E-1,0E0,0E0,0E0,0E0,0E0,2.0266193E-1,1.2937142E0,0E0,3.2217318E-1,7.15593E-1,6.4109033E-1,0E0,2.8963077E-1,0E0,4.780747E-2,0E0,0E0,0E0,0E0,1.5014356E-1,0E0,0E0,0E0,0E0,0E0],"parents":[2147483647,0,0,1,1,2,2,4,4,5,5,7,7,8,8,9,9,11,11,12,12,14,14,15,15,21,21,22,22,24,24,25,25,26,26,28,28,30,30,35,35],"right_children":[2,4,6,-1,8,10,-1,12,14,-1,-1,-1,20,-1,22,-1,-1,-1,-1,-1,-1,-1,28,-1,-1,-1,-1,-1,-1,-1,-1,-1,-1,-1,-1,-1,-1,-1,-1,-1,-1],"split_conditions":[6.646753E1,6.1735943E1,7.600613E1,-5.770753E-2,6.340206E1,7.37068E1,3.2928577E-1,6.282891E1,6.369626E1,1.7761866E-2,-0E0,-0E0,6.3008396E1,-9.562877E-2,6.512924E1,-0E0,2.218688E-2,-0E0,-1.5660064E-2,7.3267646E-2,-0E0,-0E0,6.5209335E1,1.9939061E-2,-0E0,-0E0,8.242162E-3,-6.859386E-2,-0E0,-1.5323054E-2,-0E0,-0E0,-1.701361E-2,2.9630503E-2,-0E0,-0E0,-8.894484E-3,2.5778147E-3,-0E0,-0E0,1.7234704E-2],"split_indices":[1,1,1,0,1,1,0,1,1,1,0,1,1,0,1,2147483647,2147483647,2147483647,2147483647,0,0,1,1,2147483647,2147483647,2147483647,2147483647,0,1,2147483647,2147483647,2147483647,2147483647,2147483647,2147483647,2147483647,2147483647,2147483647,2147483647,2147483647,2147483647],"split_type":[0,0,0,0,0,0,0,0,0,0,0,0,0,0,0,0,0,0,0,0,0,0,0,0,0,0,0,0,0,0,0,0,0,0,0,0,0,0,0,0,0],"sum_hessian":[8E3,4.122E3,3.878E3,9.56E2,3.166E3,3.847E3,3.1E1,9.66E2,2.2E3,3.681E3,1.66E2,6.26E2,3.4E2,1.78E2,2.022E3,1.166E3,2.515E3,4.78E2,1.48E2,1E2,2.4E2,1.073E3,9.49E2,2.12E2,9.54E2,8.05E2,2.68E2,5.7E1,8.92E2,1.23E2,8.31E2,5.83E2,2.22E2,8.6E1,1.82E2,5.63E2,3.29E2,6.47E2,1.84E2,5.18E2,4.5E1],"tree_param":{"num_deleted":"20","num_feature":"2","num_nodes":"41","size_leaf_vector":"0"}},{"base_weights":[-0E0,2.6182193E-1,-2.597811E-1],"categories":[],"categories_nodes":[],"categories_segments":[],"categories_sizes":[],"default_left":[1,0,0],"id":42,"left_children":[1,-1,-1],"loss_changes":[5.4422754E2,0E0,0E0],"parents":[2147483647,0,0],"right_children":[2,-1,-1],"split_conditions":[5E-1,7.854658E-2,-7.793433E-2],"split_indices":[0,0,0],"split_type":[0,0,0],"sum_hessian":[8E3,4.012E3,3.988E3],"tree_param":{"num_deleted":"0","num_feature":"2","num_nodes":"3","size_leaf_vector":"0"}},{"base_weights":[-0E0,1.8328162E-1,-1.8184882E-1],"categories":[],"categories_nodes":[],"categories_segments":[],"categories_sizes":[],"default_left":[1,0,0],"id":43,"left_children":[1,-1,-1],"loss_changes":[2.6668372E2,0E0,0E0],"parents":[2147483647,0,0],"right_children":[2,-1,-1],"split_conditions":[5E-1,5.4984488E-2,-5.455465E-2],"split_indices":[0,0,0],"split_type":[0,0,0],"sum_hessian":[8E3,4.012E3,3.988E3],"tree_param":{"num_deleted":"0","num_feature":"2","num_nodes":"3","size_leaf_vector":"0"}},{"base_weights":[-0E0,-1.3011718E-1,1.7622474E-1,-1.8192883E-1,-0E0,-0E0,2.0395827E-1,2.7512422E-2,-4.3851253E-2,4.389685E-2,-0E0,-6.675853E-2,-0E0,5.3233534E-2,-2.2128327E-2,8.669013E-2,-0E0,-5.312782E-2,-0E0,-0E0,1.6410515E-2],"categories":[],"categories_nodes":[],"categories_segments":[],"categories_sizes":[],"default_left":[1,1,1,0,1,1,0,0,1,1,1,0,1,1,1,1,1,1,1,1,1],"id":44,"left_children":[1,3,5,-1,7,-1,-1,-1,11,-1,-1,-1,-1,-1,-1,-1,-1,-1,-1,-1,-1],"loss_changes":[1.83788E2,1.8633278E1,6.249138E0,0E0,3.1200333E0,1.0125895E0,0E0,0E0,1.9881611E0,0E0,0E0,0E0,7.223724E-1,7.038981E-2,2.2835755E-1,0E0,2.4908748E-2,0E0,0E0,0E0,0E0],"parents":[2147483647,0,0,1,1,2,2,4,4,5,5,8,8,12,12,13,13,14,14,16,16],"right_children":[2,4,6,-1,8,-1,-1,-1,12,-1,-1,-1,-1,-1,-1,-1,-1,-1,-1,-1,-1],"split_conditions":[6.714004E1,6.479491E1,6.812965E1,-5.457865E-2,6.4905876E1,-0E0,6.1187483E-2,8.253727E-3,6.646753E1,1.3169056E-2,-0E0,-2.002756E-2,-0E0,1.597006E-2,-6.6384985E-3,2.600704E-2,-0E0,-1.5938347E-2,-0E0,-0E0,4.9231546E-3],"split_indices":[1,1,1,0,1,1,0,0,1,2147483647,2147483647,0,1,2147483647,2147483647,2147483647,2147483647,2147483647,2147483647,2147483647,2147483647],"split_type":[0,0,0,0,0,0,0,0,0,0,0,0,0,0,0,0,0,0,0,0,0],"sum_hessian":[8E3,4.579E3,3.421E3,2.905E3,1.674E3,7.17E2,2.704E3,8.6E1,1.588E3,5.25E2,1.92E2,1.131E3,4.57E2,2.12E2,2.45E2,8.9E1,1.23E2,1.23E2,1.22E2,3.1E1,9.2E1],"tree_param":{"num_deleted":"10","num_feature":"2","num_nodes":"21","size_leaf_vector":"0"}},{"base_weights":[-0E0,1.6423815E-1,-1.5967655E-1],"categories":[],"categories_nodes":[],"categories_segments":[],"categories_sizes":[],"default_left":[1,0,0],"id":45,"left_children":[1,-1,-1],"loss_changes":[2.0992667E2,0E0,0E0],"parents":[2147483647,0,0],"right_children":[2,-1,-1],"split_conditions":[5E-1,4.927145E-2,-4.7902968E-2],"split_indices":[0,0,0],"split_type":[0,0,0],"sum_hessian":[8E3,4.012E3,3.988E3],"tree_param":{"num_deleted":"0","num_feature":"2","num_nodes":"3","size_leaf_vector":"0"}},{"base_weights":[-0E0,1.1497357E-1,-1.1178513E-1],"categories":[],"categories_nodes":[],"categories_segments":[],"categories_sizes":[],"default_left":[1,0,0],"id":46,"left_children":[1,-1,-1],"loss_changes":[1.0288069E2,0E0,0E0],"parents":[2147483647,0,0],"right_children":[2,-1,-1],"split_conditions":[5E-1,3.449207E-2,-3.353554E-2],"split_indices":[0,0,0],"split_type":[0,0,0],"sum_hessian":[8E3,4.012E3,3.988E3],"tree_param":{"num_deleted":"0","num_feature":"2","num_nodes":"3","size_leaf_vector":"0"}},{"base_weights":[-0E0,8.0490656E-2,-7.825045E-2],"categories":[],"categories_nodes":[],"categories_segments":[],"categories_sizes":[],"default_left":[1,0,0],"id":47,"left_children":[1,-1,-1],"loss_changes":[5.041799E1,0E0,0E0],"parents":[2147483647,0,0],"right_children":[2,-1,-1],"split_conditions":[5E-1,2.4147198E-2,-2.3475137E-2],"split_indices":[0,0,0],"split_type":[0,0,0],"sum_hessian":[8E3,4.012E3,3.988E3],"tree_param":{"num_deleted":"0","num_feature":"2","num_nodes":"3","size_leaf_vector":"0"}},{"base_weights":[-0E0,-1.7249772E-1,1.852984E-1,-1.9863321E-1,-0E0,-0E0,2.0731772E-1,-0E0,-5.3079907E-2,9.3518436E-2,-0E0,-0E0,-1.0191559E-2,-0E0,1.2614653E-2,-4.1700106E-2,-0E0],"categories":[],"categories_nodes":[],"categories_segments":[],"categories_sizes":[],"default_left":[1,1,1,0,1,1,0,1,1,1,1,1,1,1,1,1,1],"id":48,"left_children":[1,3,5,-1,-1,-1,-1,-1,-1,-1,-1,-1,-1,-1,-1,-1,-1],"loss_changes":[2.5583665E2,1.1342468E1,1.388797E1,0E0,9.283379E-1,7.826761E-1,0E0,0E0,0E0,0E0,2.5498802E-2,1.4718316E-2,1.8924248E-1,0E0,0E0,0E0,0E0],"parents":[2147483647,0,0,1,1,2,2,4,4,5,5,10,10,11,11,12,12],"right_children":[2,4,6,-1,-1,-1,-1,-1,-1,-1,-1,-1,-1,-1,-1,-1,-1],"split_conditions":[6.646753E1,6.5448456E1,6.714004E1,-5.9589963E-2,-0E0,-0E0,6.219532E-2,-0E0,-1.5923973E-2,2.8055532E-2,-0E0,-0E0,-3.0574678E-3,-0E0,3.7843962E-3,-1.2510032E-2,-0E0],"split_indices":[1,1,1,0,1,1,0,2147483647,2147483647,2147483647,2147483647,2147483647,2147483647,2147483647,2147483647,2147483647,2147483647],"split_type":[0,0,0,0,0,0,0,0,0,0,0,0,0,0,0,0,0],"sum_hessian":[8E3,4.122E3,3.878E3,3.396E3,7.26E2,4.57E2,3.421E3,3.97E2,3.29E2,8.9E1,3.68E2,1.23E2,2.45E2,3.1E1,9.2E1,1.23E2,1.22E2],"tree_param":{"num_deleted":"10","num_feature":"2","num_nodes":"17","size_leaf_vector":"0"}},{"base_weights":[-0E0,-1.2341048E-1,1.3043985E-1,-1.838194E-1,-0E0,-0E0,2.480529E-1,-0E0,-5.3784087E-2,8.273998E-2,-1.3140546E-1,-0E0,2.7775282E-1,-2.7048907E-1,-0E0,5.3596098E-2,-0E0,3.0010462E-1,-0E0,-0E0,7.044005E-2,9.3518436E-2,-0E0,-0E0,-1.0191559E-2,-0E0,1.2614653E-2,-4.1700106E-2,-0E0],"categories":[],"categories_nodes":[],"categories_segments":[],"categories_sizes":[],"default_left":[1,1,1,0,1,1,0,0,0,1,1,1,1,0,0,1,0,0,0,1,1,1,1,1,1,1,1,1,1],"id":49,"left_children":[1,3,5,-1,7,9,-1,-1,-1,11,13,15,17,-1,-1,-1,-1,-1,-1,-1,-1,-1,-1,-1,-1,-1,-1,-1,-1],"loss_changes":[1.28777E2,8.18858E0,2.1289375E1,0E0,4.1640606E0,1.926017E1,0E0,0E0,0E0,5.913291E0,2.4040692E0,3.8965816E0,1.2037582E0,0E0,0E0,5.6652117E-1,0E0,0E0,0E0,7.826761E-1,0E0,0E0,2.5498802E-2,1.4718316E-2,1.8924248E-1,0E0,0E0,0E0,0E0],"parents":[2147483647,0,0,1,1,2,2,4,4,5,5,9,9,10,10,11,11,12,12,15,15,19,19,22,22,23,23,24,24],"right_children":[2,4,6,-1,8,10,-1,-1,-1,12,14,16,18,-1,-1,-1,-1,-1,-1,-1,-1,-1,-1,-1,-1,-1,-1,-1,-1],"split_conditions":[6.646753E1,6.369626E1,7.015734E1,-5.5145822E-2,6.450202E1,6.973576E1,7.441587E-2,-0E0,-1.6135227E-2,6.929706E1,6.987689E1,6.8374664E1,6.968497E1,-8.1146725E-2,-0E0,1.607883E-2,-0E0,9.0031385E-2,-0E0,-0E0,2.1132015E-2,2.8055532E-2,-0E0,-0E0,-3.0574678E-3,-0E0,3.7843962E-3,-1.2510032E-2,-0E0],"split_indices":[1,1,1,0,1,1,0,0,0,1,1,1,1,0,0,1,0,0,0,2147483647,2147483647,2147483647,2147483647,2147483647,2147483647,2147483647,2147483647,2147483647,2147483647],"split_type":[0,0,0,0,0,0,0,0,0,0,0,0,0,0,0,0,0,0,0,0,0,0,0,0,0,0,0,0,0],"sum_hessian":[8E3,4.122E3,3.878E3,2.1E3,2.022E3,2.46E3,1.418E3,5.83E2,1.439E3,2.229E3,2.31E2,1.955E3,2.74E2,8.7E1,1.44E2,1.356E3,5.99E2,2.48E2,2.6E1,4.57E2,8.99E2,8.9E1,3.68E2,1.23E2,2.45E2,3.1E1,9.2E1,1.23E2,1.22E2],"tree_param":{"num_deleted":"10","num_feature":"2","num_nodes":"29","size_leaf_vector":"0"}},{"base_weights":[-0E0,1.2169424E-1,-1.2403951E-1],"categories":[],"categories_nodes":[],"categories_segments":[],"categories_sizes":[],"default_left":[1,0,0],"id":50,"left_children":[1,-1,-1],"loss_changes":[1.2078911E2,0E0,0E0],"parents":[2147483647,0,0],"right_children":[2,-1,-1],"split_conditions":[5E-1,3.6508273E-2,-3.7211854E-2],"split_indices":[0,0,0],"split_type":[0,0,0],"sum_hessian":[8E3,4.012E3,3.988E3],"tree_param":{"num_deleted":"0","num_feature":"2","num_nodes":"3","size_leaf_vector":"0"}},{"base_weights":[-0E0,-1.0109875E-1,1.3399987E-1,-1.4590816E-1,-0E0,-0E0,1.5841812E-1,-0E0,-3.284553E-2,2.2614855E-2,-0E0,-8.5157685E-2,-0E0,1.8126341E-3,-1.3449957E-2,-4.300249E-2,-0E0,8.075678E-2,-9.868388E-3,-0E0,-2.1236578E-2,-5.289133E-2,-0E0],"categories":[],"categories_nodes":[],"categories_segments":[],"categories_sizes":[],"default_left":[1,1,1,0,1,1,0,0,1,1,1,0,1,1,1,1,1,1,1,1,1,1,1],"id":51,"left_children":[1,3,5,-1,7,-1,-1,-1,11,-1,-1,-1,-1,-1,-1,-1,-1,-1,-1,-1,-1,-1,-1],"loss_changes":[1.0824301E2,1.3260494E1,4.403755E0,0E0,1.517365E0,2.6875362E-1,0E0,0E0,1.5464809E0,0E0,0E0,0E0,1.4292976E-1,0E0,4.6702498E-1,0E0,6.195265E-1,0E0,7.482961E-2,0E0,2.3475459E-1,0E0,0E0],"parents":[2147483647,0,0,1,1,2,2,4,4,5,5,8,8,12,12,14,14,16,16,18,18,20,20],"right_children":[2,4,6,-1,8,-1,-1,-1,12,-1,-1,-1,-1,-1,-1,-1,-1,-1,-1,-1,-1,-1,-1],"split_conditions":[6.714004E1,6.469612E1,6.8238525E1,-4.377245E-2,6.512924E1,-0E0,4.752544E-2,-0E0,6.5740105E1,6.784457E-3,-0E0,-2.5547307E-2,-0E0,5.4379023E-4,-4.034987E-3,-1.2900747E-2,-0E0,2.4227036E-2,-2.9605166E-3,-0E0,-6.370974E-3,-1.5867399E-2,-0E0],"split_indices":[1,1,1,0,1,1,0,0,1,2147483647,2147483647,0,1,2147483647,2147483647,2147483647,2147483647,2147483647,2147483647,2147483647,2147483647,2147483647,2147483647],"split_type":[0,0,0,0,0,0,0,0,0,0,0,0,0,0,0,0,0,0,0,0,0,0,0],"sum_hessian":[8E3,4.579E3,3.421E3,2.821E3,1.758E3,7.98E2,2.623E3,3.52E2,1.406E3,5.25E2,2.73E2,4.22E2,9.84E2,1.98E2,7.86E2,3.29E2,4.57E2,8.9E1,3.68E2,1.23E2,2.45E2,1.23E2,1.22E2],"tree_param":{"num_deleted":"12","num_feature":"2","num_nodes":"23","size_leaf_vector":"0"}},{"base_weights":[-0E0,1.1266027E-1,-1.1206182E-1],"categories":[],"categories_nodes":[],"categories_segments":[],"categories_sizes":[],"default_left":[1,0,0],"id":52,"left_children":[1,-1,-1],"loss_changes":[1.010148E2,0E0,0E0],"parents":[2147483647,0,0],"right_children":[2,-1,-1],"split_conditions":[5E-1,3.379808E-2,-3.3618547E-2],"split_indices":[0,0,0],"split_type":[0,0,0],"sum_hessian":[8E3,4.012E3,3.988E3],"tree_param":{"num_deleted":"0","num_feature":"2","num_nodes":"3","size_leaf_vector":"0"}},{"base_weights":[-0E0,7.88662E-2,-7.845086E-2],"categories":[],"categories_nodes":[],"categories_segments":[],"categories_sizes":[],"default_left":[1,0,0],"id":53,"left_children":[1,-1,-1],"loss_changes":[4.950454E1,0E0,0E0],"parents":[2147483647,0,0],"right_children":[2,-1,-1],"split_conditions":[5E-1,2.365986E-2,-2.3535259E-2],"split_indices":[0,0,0],"split_type":[0,0,0],"sum_hessian":[8E3,4.012E3,3.988E3],"tree_param":{"num_deleted":"0","num_feature":"2","num_nodes":"3","size_leaf_vector":"0"}},{"base_weights":[-0E0,-1.1782438E-1,1.2586668E-1,-1.4696336E-1,-0E0,2.8066538E-2,2.7109477E-1,-0E0,-5.0880495E-2,8.862054E-2,-0E0,-0E0,1.0822414E-1,-1.6045529E-1,-0E0,8.507972E-2,-5.0520636E-3,2.2917796E-2,-0E0,-1.6541017E-2,-0E0,-0E0,4.0422056E-2,-0E0,-4.6090446E-2],"categories":[],"categories_nodes":[],"categories_segments":[],"categories_sizes":[],"default_left":[1,1,1,0,1,1,0,0,0,1,1,1,0,0,1,1,1,1,1,1,1,1,1,1,1],"id":54,"left_children":[1,3,5,-1,7,9,-1,-1,-1,11,13,-1,-1,-1,-1,-1,-1,-1,-1,-1,-1,-1,-1,-1,-1],"loss_changes":[1.18675575E2,5.522644E0,7.517109E0,0E0,2.9292362E0,1.5168023E1,0E0,0E0,0E0,3.2507095E0,2.2525783E0,6.572034E-1,0E0,0E0,2.6602283E-1,0E0,5.8036536E-2,3.8672528E-1,0E0,1.9489744E-1,0E0,0E0,0E0,0E0,0E0],"parents":[2147483647,0,0,1,1,2,2,4,4,5,5,9,9,10,10,11,11,14,14,16,16,17,17,19,19],"right_children":[2,4,6,-1,8,10,-1,-1,-1,12,14,-1,-1,-1,-1,-1,-1,-1,-1,-1,-1,-1,-1,-1,-1],"split_conditions":[6.646753E1,6.479491E1,7.119999E1,-4.4089008E-2,6.4905876E1,6.973576E1,8.132844E-2,-0E0,-1.5264149E-2,6.714004E1,6.987689E1,-0E0,3.2467242E-2,-4.813659E-2,-0E0,2.5523918E-2,-1.5156191E-3,6.875339E-3,-0E0,-4.9623055E-3,-0E0,-0E0,1.2126617E-2,-0E0,-1.3827135E-2],"split_indices":[1,1,1,0,1,1,0,0,0,1,1,1,0,0,1,2147483647,2147483647,2147483647,2147483647,2147483647,2147483647,2147483647,2147483647,2147483647,2147483647],"split_type":[0,0,0,0,0,0,0,0,0,0,0,0,0,0,0,0,0,0,0,0,0,0,0,0,0],"sum_hessian":[8E3,4.122E3,3.878E3,2.905E3,1.217E3,2.972E3,9.06E2,8.6E1,1.131E3,2.229E3,7.43E2,4.57E2,1.772E3,8.7E1,6.56E2,8.9E1,3.68E2,5.06E2,1.5E2,2.46E2,1.22E2,1.07E2,3.99E2,1.23E2,1.23E2],"tree_param":{"num_deleted":"10","num_feature":"2","num_nodes":"25","size_leaf_vector":"0"}},{"base_weights":[-0E0,8.37553E-2,-7.906042E-2],"categories":[],"categories_nodes":[],"categories_segments":[],"categories_sizes":[],"default_left":[1,0,0],"id":55,"left_children":[1,-1,-1],"loss_changes":[5.307771E1,0E0,0E0],"parents":[2147483647,0,0],"right_children":[2,-1,-1],"split_conditions":[5E-1,2.5126591E-2,-2.3718128E-2],"split_indices":[0,0,0],"split_type":[0,0,0],"sum_hessian":[8E3,4.012E3,3.988E3],"tree_param":{"num_deleted":"0","num_feature":"2","num_nodes":"3","size_leaf_vector":"0"}},{"base_weights":[-0E0,-9.907282E-2,1.0903963E-1,-1.7391826E-1,-0E0,-0E0,1.5579385E-1,4.4246394E-2,-6.1676387E-2,5.0933495E-2,-0E0,-0E0,1.18316144E-1,-7.212031E-2,-0E0,-0E0,6.9717474E-2,-0E0,-7.9107866E-2,7.931287E-3,-4.2773023E-2,8.628433E-2,-3.6398626E-3,-1.5663905E-2,-0E0,-0E0,-4.383078E-2],"categories":[],"categories_nodes":[],"categories_segments":[],"categories_sizes":[],"default_left":[1,1,1,0,1,1,0,1,1,1,0,1,1,1,1,1,1,1,1,1,1,1,1,1,1,1,1],"id":56,"left_children":[1,3,5,-1,7,9,-1,-1,-1,-1,-1,-1,-1,-1,-1,-1,-1,-1,-1,-1,-1,-1,-1,-1,-1,-1,-1],"loss_changes":[8.6577896E1,5.61792E0,8.121098E0,0E0,9.595823E0,3.5190415E0,0E0,1.0945224E0,6.691456E-1,8.529663E-1,0E0,0E0,0E0,5.2008533E-1,6.153035E-1,6.7115384E-1,0E0,0E0,0E0,0E0,0E0,0E0,5.5596925E-2,1.7676745E-1,0E0,0E0,0E0],"parents":[2147483647,0,0,1,1,2,2,4,4,5,5,7,7,8,8,9,9,13,13,14,14,15,15,22,22,23,23],"right_children":[2,4,6,-1,8,10,-1,-1,-1,-1,-1,-1,-1,-1,-1,-1,-1,-1,-1,-1,-1,-1,-1,-1,-1,-1,-1],"split_conditions":[6.646753E1,6.2737152E1,6.884854E1,-5.217548E-2,6.3008396E1,6.8374664E1,4.6738155E-2,1.3273919E-2,-1.8502917E-2,1.5280049E-2,-0E0,-0E0,3.5494845E-2,-2.1636093E-2,-0E0,-0E0,2.0915244E-2,-0E0,-2.373236E-2,2.3793862E-3,-1.2831908E-2,2.58853E-2,-1.0919588E-3,-4.6991715E-3,-0E0,-0E0,-1.31492345E-2],"split_indices":[1,1,1,0,1,1,0,1,1,1,0,2147483647,2147483647,2147483647,2147483647,2147483647,2147483647,2147483647,2147483647,2147483647,2147483647,2147483647,2147483647,2147483647,2147483647,2147483647,2147483647],"split_type":[0,0,0,0,0,0,0,0,0,0,0,0,0,0,0,0,0,0,0,0,0,0,0,0,0,0,0],"sum_hessian":[8E3,4.122E3,3.878E3,1.523E3,2.599E3,1.644E3,2.234E3,1.59E2,2.44E3,1.356E3,2.88E2,5.9E1,1E2,1.913E3,5.27E2,4.57E2,8.99E2,2.4E2,1.673E3,1.98E2,3.29E2,8.9E1,3.68E2,2.46E2,1.22E2,1.23E2,1.23E2],"tree_param":{"num_deleted":"16","num_feature":"2","num_nodes":"27","size_leaf_vector":"0"}},{"base_weights":[-0E0,8.217847E-2,-7.9696E-2],"categories":[],"categories_nodes":[],"categories_segments":[],"categories_sizes":[],"default_left":[1,0,0],"id":57,"left_children":[1,-1,-1],"loss_changes":[5.2430294E1,0E0,0E0],"parents":[2147483647,0,0],"right_children":[2,-1,-1],"split_conditions":[5E-1,2.4653543E-2,-2.3908801E-2],"split_indices":[0,0,0],"split_type":[0,0,0],"sum_hessian":[8E3,4.012E3,3.988E3],"tree_param":{"num_deleted":"0","num_feature":"2","num_nodes":"3","size_leaf_vector":"0"}},{"base_weights":[-0E0,5.752558E-2,-5.578843E-2],"categories":[],"categories_nodes":[],"categories_segments":[],"categories_sizes":[],"default_left":[1,0,0],"id":58,"left_children":[1,-1,-1],"loss_changes":[2.5691692E1,0E0,0E0],"parents":[2147483647,0,0],"right_children":[2,-1,-1],"split_conditions":[5E-1,1.7257674E-2,-1.673653E-2],"split_indices":[0,0,0],"split_type":[0,0,0],"sum_hessian":[8E3,4.012E3,3.988E3],"tree_param":{"num_deleted":"0","num_feature":"2","num_nodes":"3","size_leaf_vector":"0"}},{"base_weights":[-0E0,-8.687685E-2,1.1798299E-1,-1.2472414E-1,-0E0,-0E0,1.2684914E-1,-0E0,-2.4325129E-2,-5.472995E-2,-0E0,-0E0,-6.759587E-2,2.1602973E-2,-1.2516921E-2,-3.20657E-2,-0E0,7.369369E-2,-1.5940886E-2,-2.8859714E-2,-0E0,-0E0,-5.4660216E-2],"categories":[],"categories_nodes":[],"categories_segments":[],"categories_sizes":[],"default_left":[1,1,1,0,1,0,0,1,1,1,1,1,1,1,1,1,1,1,1,1,1,1,1],"id":59,"left_children":[1,3,5,-1,-1,-1,-1,-1,-1,-1,-1,-1,-1,-1,-1,-1,-1,-1,-1,-1,-1,-1,-1],"loss_changes":[8.219125E1,9.327335E0,1.4413528E0,0E0,9.3993E-1,0E0,0E0,0E0,8.707476E-1,1.19776726E-1,2.1585667E-1,0E0,0E0,0E0,2.1556503E-1,0E0,5.796517E-1,0E0,1.1166123E-1,1.6366437E-1,0E0,0E0,0E0],"parents":[2147483647,0,0,1,1,2,2,4,4,8,8,9,9,10,10,14,14,16,16,18,18,19,19],"right_children":[2,4,6,-1,-1,-1,-1,-1,-1,-1,-1,-1,-1,-1,-1,-1,-1,-1,-1,-1,-1,-1,-1],"split_conditions":[6.714004E1,6.469612E1,6.7651535E1,-3.7417244E-2,-0E0,-0E0,3.8054746E-2,-0E0,-7.2975387E-3,-1.6418986E-2,-0E0,-0E0,-2.0278761E-2,6.480892E-3,-3.7550766E-3,-9.619711E-3,-0E0,2.2108108E-2,-4.782266E-3,-8.657915E-3,-0E0,-0E0,-1.6398065E-2],"split_indices":[1,1,1,0,1,0,0,2147483647,2147483647,2147483647,2147483647,2147483647,2147483647,2147483647,2147483647,2147483647,2147483647,2147483647,2147483647,2147483647,2147483647,2147483647,2147483647],"split_type":[0,0,0,0,0,0,0,0,0,0,0,0,0,0,0,0,0,0,0,0,0,0,0],"sum_hessian":[8E3,4.579E3,3.421E3,2.821E3,1.758E3,3.72E2,3.049E3,1.7E2,1.588E3,6.04E2,9.84E2,1.82E2,4.22E2,1.98E2,7.86E2,3.29E2,4.57E2,8.9E1,3.68E2,2.46E2,1.22E2,1.23E2,1.23E2],"tree_param":{"num_deleted":"16","num_feature":"2","num_nodes":"23","size_leaf_vector":"0"}},{"base_weights":[-0E0,6.132427E-2,-6.286126E-2],"categories":[],"categories_nodes":[],"categories_segments":[],"categories_sizes":[],"default_left":[1,0,0],"id":60,"left_children":[1,-1,-1],"loss_changes":[3.0850323E1,0E0,0E0],"parents":[2147483647,0,0],"right_children":[2,-1,-1],"split_conditions":[5E-1,1.8397281E-2,-1.8858377E-2],"split_indices":[0,0,0],"split_type":[0,0,0],"sum_hessian":[8E3,4.012E3,3.988E3],"tree_param":{"num_deleted":"0","num_feature":"2","num_nodes":"3","size_leaf_vector":"0"}},{"base_weights":[-0E0,4.292671E-2,-4.400372E-2],"categories":[],"categories_nodes":[],"categories_segments":[],"categories_sizes":[],"default_left":[1,0,0],"id":61,"left_children":[1,-1,-1],"loss_changes":[1.51168585E1,0E0,0E0],"parents":[2147483647,0,0],"right_children":[2,-1,-1],"split_conditions":[5E-1,1.2878014E-2,-1.3201117E-2],"split_indices":[0,0,0],"split_type":[0,0,0],"sum_hessian":[8E3,4.012E3,3.988E3],"tree_param":{"num_deleted":"0","num_feature":"2","num_nodes":"3","size_leaf_vector":"0"}},{"base_weights":[-0E0,3.0049874E-2,-3.0806499E-2],"categories":[],"categories_nodes":[],"categories_segments":[],"categories_sizes":[],"default_left":[1,0,0],"id":62,"left_children":[1,-1,-1],"loss_changes":[7.408501E0,0E0,0E0],"parents":[2147483647,0,0],"right_children":[2,-1,-1],"split_conditions":[5E-1,9.014962E-3,-9.24195E-3],"split_indices":[0,0,0],"split_type":[0,0,0],"sum_hessian":[8E3,4.012E3,3.988E3],"tree_param":{"num_deleted":"0","num_feature":"2","num_nodes":"3","size_leaf_vector":"0"}},{"base_weights":[-0E0,-8.9541666E-2,1.1218622E-1,-4.002986E-1,-3.454451E-2,-0E0,1.3334395E-1,-0E0,-6.482564E-2,2.6743645E-2,-0E0,-7.925739E-2,-0E0,-0E0,-4.9202684E-2,-0E0,3.1364102E-2,1.799408E-2,-3.8621385E-2,7.738594E-2,-0E0],"categories":[],"categories_nodes":[],"categories_segments":[],"categories_sizes":[],"default_left":[1,1,1,0,1,1,0,0,1,1,1,0,1,1,1,1,1,1,1,1,1],"id":63,"left_children":[1,3,5,-1,7,-1,-1,-1,11,-1,-1,-1,-1,-1,-1,-1,-1,-1,-1,-1,-1],"loss_changes":[8.0336395E1,7.035019E0,2.0497856E0,0E0,1.2361057E1,4.6310136E-1,0E0,0E0,3.194765E0,0E0,0E0,0E0,2.9896396E-1,2.0903051E-1,0E0,5.5574435E-1,3.2690394E-1,0E0,0E0,0E0,0E0],"parents":[2147483647,0,0,1,1,2,2,4,4,5,5,8,8,12,12,13,13,15,15,16,16],"right_children":[2,4,6,-1,8,-1,-1,-1,12,-1,-1,-1,-1,-1,-1,-1,-1,-1,-1,-1,-1],"split_conditions":[6.6955185E1,5.9493805E1,6.8238525E1,-1.2008958E-1,5.9905033E1,-0E0,4.0003188E-2,-0E0,6.5740105E1,8.023093E-3,-0E0,-2.3777219E-2,-0E0,-0E0,-1.4760806E-2,-0E0,9.409231E-3,5.398224E-3,-1.1586416E-2,2.3215782E-2,-0E0],"split_indices":[1,1,1,0,1,1,0,0,1,2147483647,2147483647,0,1,2147483647,2147483647,2147483647,2147483647,2147483647,2147483647,2147483647,2147483647],"split_type":[0,0,0,0,0,0,0,0,0,0,0,0,0,0,0,0,0,0,0,0,0],"sum_hessian":[8E3,4.457E3,3.543E3,2.35E2,4.222E3,9.2E2,2.623E3,8.2E1,4.14E3,6.47E2,2.73E2,3.278E3,8.62E2,7.39E2,1.23E2,5.27E2,2.12E2,1.98E2,3.29E2,8.9E1,1.23E2],"tree_param":{"num_deleted":"10","num_feature":"2","num_nodes":"21","size_leaf_vector":"0"}},{"base_weights":[-0E0,-6.572656E-2,8.2570694E-2,-1.3999915E-1,-0E0,-0E0,1.3978112E-1,-0E0,-4.3616448E-2,6.0125355E-2,-8.465441E-2,-0E0,2.2490436E-2,-2.5938654E-1,-0E0,-0E0,6.3161425E-2,-1.0841153E-1,-0E0,-0E0,-6.7213856E-2,9.561807E-2,-0E0,-0E0,-2.7652295E-2,6.479115E-2,-0E0,-4.444295E-2,-0E0,-0E0,1.895754E-1,-0E0,-4.9202684E-2,6.467509E-2,-0E0,1.9630967E-1,-0E0,-0E0,3.1364102E-2,-3.1094868E-3,-0E0,1.799408E-2,-3.8621385E-2,7.738594E-2,-0E0],"categories":[],"categories_nodes":[],"categories_segments":[],"categories_sizes":[],"default_left":[1,1,1,0,1,1,0,1,1,1,1,1,1,0,1,0,1,1,1,1,1,1,1,0,1,1,0,1,1,1,1,1,1,0,1,1,1,1,1,1,1,1,1,1,1],"id":64,"left_children":[1,3,5,-1,7,9,-1,-1,13,15,-1,-1,-1,-1,23,-1,25,-1,-1,-1,-1,-1,-1,-1,-1,29,-1,-1,-1,33,-1,-1,-1,-1,-1,-1,-1,-1,-1,-1,-1,-1,-1,-1,-1],"loss_changes":[4.341553E1,4.429888E0,3.5563393E0,0E0,4.823508E0,8.507664E0,0E0,1.7222792E-1,3.0142808E0,2.2242069E-1,6.2692213E-1,6.7084575E-1,7.465582E-1,0E0,1.354571E0,0E0,6.736469E-2,0E0,0E0,0E0,0E0,0E0,0E0,0E0,4.4183707E-1,1.3886452E-1,0E0,0E0,2.9896396E-1,3.762459E0,1.4083338E-1,2.0903051E-1,0E0,0E0,2.7894094E-3,0E0,0E0,5.5574435E-1,3.2690394E-1,0E0,0E0,0E0,0E0,0E0,0E0],"parents":[2147483647,0,0,1,1,2,2,4,4,5,5,7,7,8,8,9,9,10,10,11,11,12,12,14,14,16,16,24,24,25,25,28,28,29,29,30,30,31,31,34,34,37,37,38,38],"right_children":[2,4,6,-1,8,10,-1,-1,14,16,-1,-1,-1,-1,24,-1,26,-1,-1,-1,-1,-1,-1,-1,-1,30,-1,-1,-1,34,-1,-1,-1,-1,-1,-1,-1,-1,-1,-1,-1,-1,-1,-1,-1],"split_conditions":[6.6955185E1,6.21936E1,7.015734E1,-4.1999746E-2,6.340206E1,6.973576E1,4.1934337E-2,-0E0,6.3593582E1,6.714004E1,-2.5396325E-2,-0E0,6.7471312E-3,-7.7815965E-2,6.4506485E1,-0E0,6.960376E1,-3.252346E-2,-0E0,-0E0,-2.0164158E-2,2.8685423E-2,-0E0,-0E0,-8.295689E-3,6.929706E1,-0E0,-1.3332886E-2,-0E0,6.8374664E1,5.6872625E-2,-0E0,-1.4760806E-2,1.9402528E-2,-0E0,5.8892902E-2,-0E0,-0E0,9.409231E-3,-9.3284604E-4,-0E0,5.398224E-3,-1.1586416E-2,2.3215782E-2,-0E0],"split_indices":[1,1,1,0,1,1,0,1,1,1,1,2147483647,2147483647,0,1,0,1,2147483647,2147483647,2147483647,2147483647,2147483647,2147483647,0,1,1,0,2147483647,2147483647,1,1,2147483647,2147483647,0,1,2147483647,2147483647,2147483647,2147483647,2147483647,2147483647,2147483647,2147483647,2147483647,2147483647],"split_type":[0,0,0,0,0,0,0,0,0,0,0,0,0,0,0,0,0,0,0,0,0,0,0,0,0,0,0,0,0,0,0,0,0,0,0,0,0,0,0,0,0,0,0,0,0],"sum_hessian":[8E3,4.457E3,3.543E3,1.208E3,3.249E3,2.125E3,1.418E3,7.14E2,2.535E3,1.894E3,2.31E2,3.74E2,3.4E2,1.16E2,2.419E3,1.22E2,1.772E3,1.94E2,3.7E1,2.26E2,1.48E2,1E2,2.4E2,6.48E2,1.771E3,1.7E3,7.2E1,9.09E2,8.62E2,1.498E3,2.02E2,7.39E2,1.23E2,8.99E2,5.99E2,1.92E2,1E1,5.27E2,2.12E2,2.88E2,3.11E2,1.98E2,3.29E2,8.9E1,1.23E2],"tree_param":{"num_deleted":"22","num_feature":"2","num_nodes":"45","size_leaf_vector":"0"}},{"base_weights":[-0E0,5.717018E-2,-5.963365E-2],"categories":[],"categories_nodes":[],"categories_segments":[],"categories_sizes":[],"default_left":[1,0,0],"id":65,"left_children":[1,-1,-1],"loss_changes":[2.7298317E1,0E0,0E0],"parents":[2147483647,0,0],"right_children":[2,-1,-1],"split_conditions":[5E-1,1.7151054E-2,-1.7890096E-2],"split_indices":[0,0,0],"split_type":[0,0,0],"sum_hessian":[8E3,4.012E3,3.988E3],"tree_param":{"num_deleted":"0","num_feature":"2","num_nodes":"3","size_leaf_vector":"0"}},{"base_weights":[-0E0,4.002141E-2,-4.175256E-2],"categories":[],"categories_nodes":[],"categories_segments":[],"categories_sizes":[],"default_left":[1,0,0],"id":66,"left_children":[1,-1,-1],"loss_changes":[1.3379906E1,0E0,0E0],"parents":[2147483647,0,0],"right_children":[2,-1,-1],"split_conditions":[5E-1,1.2006423E-2,-1.2525768E-2],"split_indices":[0,0,0],"split_type":[0,0,0],"sum_hessian":[8E3,4.012E3,3.988E3],"tree_param":{"num_deleted":"0","num_feature":"2","num_nodes":"3","size_leaf_vector":"0"}},{"base_weights":[-0E0,2.8014215E-2,-2.9226638E-2],"categories":[],"categories_nodes":[],"categories_segments":[],"categories_sizes":[],"default_left":[1,0,0],"id":67,"left_children":[1,-1,-1],"loss_changes":[6.5559454E0,0E0,0E0],"parents":[2147483647,0,0],"right_children":[2,-1,-1],"split_conditions":[5E-1,8.404265E-3,-8.767992E-3],"split_indices":[0,0,0],"split_type":[0,0,0],"sum_hessian":[8E3,4.012E3,3.988E3],"tree_param":{"num_deleted":"0","num_feature":"2","num_nodes":"3","size_leaf_vector":"0"}},{"base_weights":[-0E0,1.9607654E-2,-2.045392E-2],"categories":[],"categories_nodes":[],"categories_segments":[],"categories_sizes":[],"default_left":[1,0,0],"id":68,"left_children":[1,-1,-1],"loss_changes":[3.2112806E0,0E0,0E0],"parents":[2147483647,0,0],"right_children":[2,-1,-1],"split_conditions":[5E-1,5.8822962E-3,-6.1361766E-3],"split_indices":[0,0,0],"split_type":[0,0,0],"sum_hessian":[8E3,4.012E3,3.988E3],"tree_param":{"num_deleted":"0","num_feature":"2","num_nodes":"3","size_leaf_vector":"0"}},{"base_weights":[-0E0,1.3720766E-2,-1.43206455E-2],"categories":[],"categories_nodes":[],"categories_segments":[],"categories_sizes":[],"default_left":[1,0,0],"id":69,"left_children":[1,-1,-1],"loss_changes":[1.5733532E0,0E0,0E0],"parents":[2147483647,0,0],"right_children":[2,-1,-1],"split_conditions":[5E-1,4.1162297E-3,-4.296194E-3],"split_indices":[0,0,0],"split_type":[0,0,0],"sum_hessian":[8E3,4.012E3,3.988E3],"tree_param":{"num_deleted":"0","num_feature":"2","num_nodes":"3","size_leaf_vector":"0"}},{"base_weights":[-0E0,-8.422673E-2,8.915631E-2,-9.9807575E-2,-0E0,-0E0,9.881839E-2,-0E0,-3.7719544E-2,9.04591E-2,-1.1119468E-3,-0E0,2.239723E-2,-1.3249602E-2,-0E0,-0E0,-3.4013666E-2],"categories":[],"categories_nodes":[],"categories_segments":[],"categories_sizes":[],"default_left":[1,1,1,0,1,1,0,1,1,1,1,1,1,1,1,1,1],"id":70,"left_children":[1,3,5,-1,-1,-1,-1,-1,-1,-1,-1,-1,-1,-1,-1,-1,-1],"loss_changes":[6.0075092E1,2.935175E0,2.581583E0,0E0,4.6879035E-1,7.327608E-1,0E0,9.957106E-2,0E0,0E0,4.281666E-2,0E0,0E0,9.960008E-2,0E0,0E0,0E0],"parents":[2147483647,0,0,1,1,2,2,4,4,5,5,7,7,10,10,13,13],"right_children":[2,4,6,-1,-1,-1,-1,-1,-1,-1,-1,-1,-1,-1,-1,-1,-1],"split_conditions":[6.646753E1,6.5209335E1,6.714004E1,-2.9942274E-2,-0E0,-0E0,2.964552E-2,-0E0,-1.1315864E-2,2.7137732E-2,-3.3358403E-4,-0E0,6.719169E-3,-3.974881E-3,-0E0,-0E0,-1.02041E-2],"split_indices":[1,1,1,0,1,1,0,2147483647,2147483647,2147483647,2147483647,2147483647,2147483647,2147483647,2147483647,2147483647,2147483647],"split_type":[0,0,0,0,0,0,0,0,0,0,0,0,0,0,0,0,0],"sum_hessian":[8E3,4.122E3,3.878E3,3.23E3,8.92E2,4.57E2,3.421E3,5.63E2,3.29E2,8.9E1,3.68E2,3.65E2,1.98E2,2.46E2,1.22E2,1.23E2,1.23E2],"tree_param":{"num_deleted":"10","num_feature":"2","num_nodes":"17","size_leaf_vector":"0"}},{"base_weights":[-0E0,2.7860781E-2,-2.9570144E-2],"categories":[],"categories_nodes":[],"categories_segments":[],"categories_sizes":[],"default_left":[1,0,0],"id":71,"left_children":[1,-1,-1],"loss_changes":[6.6021013E0,0E0,0E0],"parents":[2147483647,0,0],"right_children":[2,-1,-1],"split_conditions":[5E-1,8.358235E-3,-8.871043E-3],"split_indices":[0,0,0],"split_type":[0,0,0],"sum_hessian":[8E3,4.012E3,3.988E3],"tree_param":{"num_deleted":"0","num_feature":"2","num_nodes":"3","size_leaf_vector":"0"}},{"base_weights":[-0E0,-6.608672E-2,6.912488E-2,-7.340547E-2,-0E0,5.634166E-3,2.6338118E-1,2.1780474E-2,-3.8958244E-2,4.469698E-2,-0E0,-0E0,4.7833107E-2,9.1383226E-2,-1.2439222E-2,-0E0,-3.2716654E-2],"categories":[],"categories_nodes":[],"categories_segments":[],"categories_sizes":[],"default_left":[1,1,1,0,1,1,0,1,1,1,0,1,1,1,1,1,1],"id":72,"left_children":[1,3,5,-1,-1,9,-1,-1,-1,-1,-1,-1,-1,-1,-1,-1,-1],"loss_changes":[3.65372E1,1.3690205E0,5.061104E0,0E0,5.9424853E-1,6.839011E0,0E0,0E0,0E0,2.432189E-1,0E0,7.854849E-1,0E0,0E0,9.4043195E-2,0E0,0E0],"parents":[2147483647,0,0,1,1,2,2,4,4,5,5,9,9,11,11,14,14],"right_children":[2,4,6,-1,-1,10,-1,-1,-1,-1,-1,-1,-1,-1,-1,-1,-1],"split_conditions":[6.646753E1,6.5740105E1,7.286316E1,-2.202164E-2,-0E0,7.257925E1,7.901436E-2,6.5341424E-3,-1.1687473E-2,1.3409094E-2,-0E0,-0E0,1.4349933E-2,2.7414968E-2,-3.7317667E-3,-0E0,-9.814996E-3],"split_indices":[1,1,1,0,1,1,0,2147483647,2147483647,1,0,2147483647,2147483647,2147483647,2147483647,2147483647,2147483647],"split_type":[0,0,0,0,0,0,0,0,0,0,0,0,0,0,0,0,0],"sum_hessian":[8E3,4.122E3,3.878E3,3.595E3,5.27E2,3.54E3,3.38E2,1.98E2,3.29E2,3.479E3,6.1E1,3.35E2,3.144E3,8.9E1,2.46E2,1.23E2,1.23E2],"tree_param":{"num_deleted":"8","num_feature":"2","num_nodes":"17","size_leaf_vector":"0"}},{"base_weights":[-0E0,-4.322317E-2,5.478046E-2,-1.9228865E-1,-0E0,4.325827E-3,8.120565E-1,-0E0,-2.900371E-2,3.4422733E-2,-0E0,-0E0,1.0131473E-1,-4.371889E-2,-0E0,-0E0,3.535282E-2,-0E0,-1.9225964E-2,-0E0,1.7837897E-2,-1.23936884E-1,-0E0,-0E0,-2.3180228E-2,-0E0,-4.607562E-2,-0E0,2.9689383E-2,-0E0,-3.8958244E-2,7.804459E-2,-0E0,-0E0,2.1780474E-2],"categories":[],"categories_nodes":[],"categories_segments":[],"categories_sizes":[],"default_left":[1,1,1,0,1,1,0,1,1,1,0,1,1,1,1,1,1,1,1,1,1,1,1,1,1,1,1,1,1,1,1,1,1,1,1],"id":73,"left_children":[1,3,5,-1,7,9,-1,-1,-1,-1,-1,-1,-1,-1,-1,-1,-1,-1,-1,-1,-1,-1,-1,-1,-1,-1,-1,-1,-1,-1,-1,-1,-1,-1,-1],"loss_changes":[1.8961342E1,6.6653843E0,5.5835505E0,0E0,3.1650658E0,3.6601272E0,0E0,9.699367E-1,5.018282E-1,5.159068E-2,0E0,0E0,0E0,0E0,4.747969E-1,0E0,0E0,8.543184E-2,4.0831107E-1,1.1793847E-1,0E0,0E0,2.621704E-1,0E0,0E0,1.8730369E-1,0E0,5.000858E-1,3.577926E-1,9.416276E-2,0E0,0E0,0E0,0E0,0E0],"parents":[2147483647,0,0,1,1,2,2,4,4,5,5,7,7,8,8,9,9,14,14,17,17,18,18,19,19,22,22,25,25,27,27,28,28,29,29],"right_children":[2,4,6,-1,8,10,-1,-1,-1,-1,-1,-1,-1,-1,-1,-1,-1,-1,-1,-1,-1,-1,-1,-1,-1,-1,-1,-1,-1,-1,-1,-1,-1,-1,-1],"split_conditions":[6.6955185E1,6.023323E1,7.64633E1,-5.7686597E-2,6.11091E1,7.257925E1,2.4361695E-1,-0E0,-8.701113E-3,1.032682E-2,-0E0,-0E0,3.039442E-2,-1.3115668E-2,-0E0,-0E0,1.0605846E-2,-0E0,-5.7677897E-3,-0E0,5.3513693E-3,-3.718107E-2,-0E0,-0E0,-6.954069E-3,-0E0,-1.3822687E-2,-0E0,8.906815E-3,-0E0,-1.1687473E-2,2.3413379E-2,-0E0,-0E0,6.5341424E-3],"split_indices":[1,1,1,0,1,1,0,1,1,1,0,2147483647,2147483647,2147483647,2147483647,2147483647,2147483647,2147483647,2147483647,2147483647,2147483647,2147483647,2147483647,2147483647,2147483647,2147483647,2147483647,2147483647,2147483647,2147483647,2147483647,2147483647,2147483647,2147483647,2147483647],"split_type":[0,0,0,0,0,0,0,0,0,0,0,0,0,0,0,0,0,0,0,0,0,0,0,0,0,0,0,0,0,0,0,0,0,0,0],"sum_hessian":[8E3,4.457E3,3.543E3,4.05E2,4.052E3,3.519E3,2.4E1,2.9E2,3.762E3,3.144E3,3.75E2,1.96E2,9.4E1,1.918E3,1.844E3,1.22E2,3.022E3,5.6E2,1.284E3,2.92E2,2.68E2,5.7E1,1.227E3,7.3E1,2.19E2,1.104E3,1.23E2,8.92E2,2.12E2,5.63E2,3.29E2,8.9E1,1.23E2,3.65E2,1.98E2],"tree_param":{"num_deleted":"24","num_feature":"2","num_nodes":"35","size_leaf_vector":"0"}},{"base_weights":[-0E0,-2.1521645E-2,6.413508E-2,-3.488468E-1,-0E0,-0E0,9.5176354E-2,-0E0,-1.2605065E-2,7.4552104E-2,-3.5234592E-3,-0E0,1.0131473E-1,-3.502361E-2,-0E0,-0E0,1.315914E-1,-5.633997E-2,-0E0,2.8174384E-3,-1.6663495E-2,-0E0,-8.62383E-2,-0E0,8.11157E-2,-1.3123602E-1,-0E0,7.697404E-3,-2.0293288E-3,-0E0,2.6519446E-2,-1.1531391E-1,-0E0,5.1324456E-3,-1.4502241E-2],"categories":[],"categories_nodes":[],"categories_segments":[],"categories_sizes":[],"default_left":[1,1,1,0,1,1,0,1,1,1,1,1,1,0,1,1,1,1,1,1,1,1,1,1,1,1,1,1,1,1,1,1,1,1,1],"id":74,"left_children":[1,3,5,-1,7,9,-1,-1,13,-1,-1,-1,-1,-1,-1,-1,-1,-1,-1,-1,-1,-1,-1,-1,-1,-1,-1,-1,-1,-1,-1,-1,-1,-1,-1],"loss_changes":[1.1862089E1,7.976413E0,1.0766277E0,0E0,8.057975E-1,2.8058503E0,0E0,9.699367E-1,1.547528E0,5.3484035E-1,8.7021095E-1,0E0,0E0,0E0,1.0285253E-1,0E0,0E0,5.6880987E-1,0E0,6.4505106E-1,0E0,0E0,6.0426354E-2,4.2287696E-2,0E0,0E0,0E0,1.5561661E-1,7.5541896E-1,4.809855E-2,0E0,0E0,0E0,0E0,0E0],"parents":[2147483647,0,0,1,1,2,2,4,4,5,5,7,7,8,8,9,9,10,10,14,14,17,17,19,19,22,22,23,23,27,27,28,28,29,29],"right_children":[2,4,6,-1,8,10,-1,-1,14,-1,-1,-1,-1,-1,-1,-1,-1,-1,-1,-1,-1,-1,-1,-1,-1,-1,-1,-1,-1,-1,-1,-1,-1,-1,-1],"split_conditions":[6.884854E1,5.8219505E1,7.0713066E1,-1.04654044E-1,6.11091E1,6.959183E1,2.8552907E-2,-0E0,6.4417694E1,2.2365632E-2,-1.0570379E-3,-0E0,3.039442E-2,-1.05070835E-2,-0E0,-0E0,3.947742E-2,-1.6901992E-2,-0E0,8.452316E-4,-4.999049E-3,-0E0,-2.5871491E-2,-0E0,2.4334712E-2,-3.9370805E-2,-0E0,2.3092213E-3,-6.087987E-4,-0E0,7.955834E-3,-3.4594174E-2,-0E0,1.5397337E-3,-4.3506725E-3],"split_indices":[1,1,1,0,1,1,0,1,1,1,1,2147483647,2147483647,0,1,2147483647,2147483647,2147483647,2147483647,2147483647,2147483647,2147483647,2147483647,2147483647,2147483647,2147483647,2147483647,2147483647,2147483647,2147483647,2147483647,2147483647,2147483647,2147483647,2147483647],"split_type":[0,0,0,0,0,0,0,0,0,0,0,0,0,0,0,0,0,0,0,0,0,0,0,0,0,0,0,0,0,0,0,0,0,0,0],"sum_hessian":[8E3,5.766E3,2.234E3,8.7E1,5.679E3,1.101E3,1.133E3,6.08E2,5.071E3,5.03E2,5.98E2,5.14E2,9.4E1,1.918E3,3.153E3,3.11E2,1.92E2,2.76E2,3.22E2,2.865E3,2.88E2,8.2E1,1.94E2,2.764E3,1.01E2,8.7E1,1.07E2,5.6E2,2.204E3,2.92E2,2.68E2,5.7E1,2.147E3,7.3E1,2.19E2],"tree_param":{"num_deleted":"22","num_feature":"2","num_nodes":"35","size_leaf_vector":"0"}},{"base_weights":[-0E0,-3.0408998E-3,2.824528E-1,-1.0082693E-1,-0E0,1.0131473E-1,-0E0,-7.801162E-2,-0E0,1.2550394E-3,-0E0,-0E0,1.3714363E-2,1.5458225E-3,-1.8574338E-2,1.9546269E-2,-0E0,-0E0,4.878662E-2,-1.5003362E-1,-0E0,-0E0,8.1302434E-2,-8.518811E-2,1.9601867E-2,-0E0,-4.1247975E-2,1.18742205E-1,-0E0,-0E0,-1.7967962E-2,8.669422E-2,-0E0,1.09279275E-1,-0E0,-1.3018909E-1,-0E0,2.6592089E-2,-0E0,-0E0,2.6519446E-2,-1.1531391E-1,-0E0,-1.7144764E-2,-0E0,-0E0,-1.4502241E-2,-0E0,-3.027374E-2,-0E0,-3.741281E-2,1.6923292E-2,-0E0,-0E0,5.1324456E-3,-0E0,3.0456396E-2,-0E0,8.11157E-2,-1.6663495E-2,-0E0],"categories":[],"categories_nodes":[],"categories_segments":[],"categories_sizes":[],"default_left":[1,1,0,0,1,0,1,0,1,1,0,1,1,1,1,1,1,1,1,0,1,1,1,1,1,1,1,1,1,1,1,1,1,1,1,1,1,1,1,1,1,1,1,1,1,1,1,1,1,1,1,1,1,1,1,1,1,1,1,1,1],"id":75,"left_children":[1,3,-1,-1,5,-1,7,-1,9,11,-1,13,15,-1,19,-1,23,-1,-1,-1,-1,-1,-1,-1,-1,-1,-1,-1,-1,-1,-1,-1,-1,-1,-1,-1,-1,-1,-1,-1,-1,-1,-1,-1,-1,-1,-1,-1,-1,-1,-1,-1,-1,-1,-1,-1,-1,-1,-1,-1,-1],"loss_changes":[8.409402E0,6.0417967E0,0E0,0E0,9.699367E-1,0E0,1.5913954E0,0E0,1.0467473E-2,6.439685E-1,0E0,7.614928E-1,1.973564E-1,8.081089E-1,1.8630778E0,9.6262807E-1,1.8173759E0,2.5264478E-1,6.064995E-1,0E0,3.0654147E-1,6.72617E-1,4.8431945E-1,7.14947E-2,4.061368E-2,0E0,0E0,0E0,0E0,1.8882582E-1,4.57956E-1,0E0,7.245478E-2,0E0,0E0,0E0,0E0,0E0,0E0,4.6162605E-2,0E0,0E0,3.019798E-1,1.0040021E-1,2.9255322E-1,1.9359445E-3,0E0,1.8412024E-1,0E0,0E0,0E0,3.75244E-1,8.010637E-2,0E0,0E0,0E0,0E0,0E0,0E0,0E0,0E0],"parents":[2147483647,0,0,1,1,4,4,6,6,8,8,9,9,11,11,12,12,13,13,14,14,15,15,16,16,17,17,18,18,20,20,21,21,22,22,23,23,24,24,29,29,30,30,32,32,39,39,42,42,43,43,44,44,45,45,47,47,51,51,52,52],"right_children":[2,4,-1,-1,6,-1,8,-1,10,12,-1,14,16,-1,20,-1,24,-1,-1,-1,-1,-1,-1,-1,-1,-1,-1,-1,-1,-1,-1,-1,-1,-1,-1,-1,-1,-1,-1,-1,-1,-1,-1,-1,-1,-1,-1,-1,-1,-1,-1,-1,-1,-1,-1,-1,-1,-1,-1,-1,-1],"split_conditions":[7.4525215E1,6.08479E1,8.473584E-2,-3.024808E-2,6.11091E1,3.039442E-2,6.1735943E1,-2.3403486E-2,7.257925E1,6.646753E1,-0E0,6.340206E1,6.973576E1,4.6374675E-4,6.3593582E1,5.8638807E-3,7.00766E1,-0E0,1.4635987E-2,-4.501009E-2,-0E0,-0E0,2.4390731E-2,-2.5556436E-2,5.8805603E-3,-0E0,-1.2374393E-2,3.5622664E-2,-0E0,-0E0,-5.390389E-3,2.6008267E-2,-0E0,3.2783784E-2,-0E0,-3.905673E-2,-0E0,7.977627E-3,-0E0,-0E0,7.955834E-3,-3.4594174E-2,-0E0,-5.143429E-3,-0E0,-0E0,-4.3506725E-3,-0E0,-9.082122E-3,-0E0,-1.1223843E-2,5.0769877E-3,-0E0,-0E0,1.5397337E-3,-0E0,9.136919E-3,-0E0,2.4334712E-2,-4.999049E-3,-0E0],"split_indices":[1,1,0,0,1,0,1,0,1,1,0,1,1,1,1,1,1,2147483647,2147483647,0,1,2147483647,2147483647,1,1,2147483647,2147483647,2147483647,2147483647,2147483647,2147483647,2147483647,2147483647,2147483647,2147483647,2147483647,2147483647,2147483647,2147483647,2147483647,2147483647,2147483647,2147483647,2147483647,2147483647,2147483647,2147483647,2147483647,2147483647,2147483647,2147483647,2147483647,2147483647,2147483647,2147483647,2147483647,2147483647,2147483647,2147483647,2147483647,2147483647],"split_type":[0,0,0,0,0,0,0,0,0,0,0,0,0,0,0,0,0,0,0,0,0,0,0,0,0,0,0,0,0,0,0,0,0,0,0,0,0,0,0,0,0,0,0,0,0,0,0,0,0,0,0,0,0,0,0,0,0,0,0,0,0],"sum_hessian":[8E3,7.896E3,1.04E2,6.01E2,7.295E3,9.4E1,7.201E3,2.61E2,6.94E3,6.645E3,2.95E2,3.166E3,3.479E3,9.66E2,2.2E3,2.229E3,1.25E3,6.26E2,3.4E2,1.16E2,2.084E3,1.955E3,2.74E2,1.94E2,1.056E3,4.78E2,1.48E2,1E2,2.4E2,1.135E3,9.49E2,8.9E1,1.866E3,1.92E2,8.2E1,8.7E1,1.07E2,6.31E2,4.25E2,8.67E2,2.68E2,5.7E1,8.92E2,2.46E2,1.62E3,6.48E2,2.19E2,5.63E2,3.29E2,1.23E2,1.23E2,1.021E3,5.99E2,5.75E2,7.3E1,3.65E2,1.98E2,9.2E2,1.01E2,2.88E2,3.11E2],"tree_param":{"num_deleted":"40","num_feature":"2","num_nodes":"61","size_leaf_vector":"0"}},{"base_weights":[-0E0,-3.4227333E-4,4.6233281E-1,-2.1470352E-1,-0E0],"categories":[],"categories_nodes":[],"categories_segments":[],"categories_sizes":[],"default_left":[1,1,0,0,0],"id":76,"left_children":[1,3,-1,-1,-1],"loss_changes":[5.236288E0,4.0322685E0,0E0,0E0,0E0],"parents":[2147483647,0,0,1,1],"right_children":[2,4,-1,-1,-1],"split_conditions":[7.64633E1,5.8219505E1,1.3869984E-1,-6.441106E-2,-0E0],"split_indices":[1,1,0,0,0],"split_type":[0,0,0,0,0],"sum_hessian":[8E3,7.976E3,2.4E1,8.7E1,7.889E3],"tree_param":{"num_deleted":"0","num_feature":"2","num_nodes":"5","size_leaf_vector":"0"}},{"base_weights":[-0E0,5.8369E-2,-5.599533E-2],"categories":[],"categories_nodes":[],"categories_segments":[],"categories_sizes":[],"default_left":[1,0,0],"id":77,"left_children":[1,-1,-1],"loss_changes":[2.6176147E1,0E0,0E0],"parents":[2147483647,0,0],"right_children":[2,-1,-1],"split_conditions":[5E-1,1.7510701E-2,-1.67986E-2],"split_indices":[0,0,0],"split_type":[0,0,0],"sum_hessian":[8E3,4.012E3,3.988E3],"tree_param":{"num_deleted":"0","num_feature":"2","num_nodes":"3","size_leaf_vector":"0"}},{"base_weights":[-0E0,-2.7243946E-2,3.8684975E-2,-5.3521484E-2,-0E0,-0E0,5.5471476E-2,1.0324589E-1,-1.740869E-2,2.0625487E-2,-9.389818E-4,-2.4295833E-2,-0E0,-0E0,8.388819E-2,-1.133241E-2,-0E0,-0E0,-2.8531311E-2,2.8369823E-2,-1.218429E-2,-1.17645636E-1,-0E0,-3.360009E-2,-0E0,-0E0,-3.7042156E-2,8.185261E-2,-1.5840428E-2,-0E0,1.9003961E-2,-1.22533694E-1,-0E0,-0E0,-2.2337046E-2,-0E0,-2.4944397E-2,-4.1521806E-2,-0E0],"categories":[],"categories_nodes":[],"categories_segments":[],"categories_sizes":[],"default_left":[1,1,1,0,1,1,0,0,1,1,1,1,1,1,1,1,1,1,1,1,1,1,1,1,1,1,1,1,1,1,1,1,1,1,1,1,1,1,1],"id":78,"left_children":[1,3,5,-1,7,-1,-1,-1,-1,-1,-1,-1,-1,-1,-1,-1,-1,-1,-1,-1,-1,-1,-1,-1,-1,-1,-1,-1,-1,-1,-1,-1,-1,-1,-1,-1,-1,-1,-1],"loss_changes":[8.519406E0,1.1340797E0,1.2168756E0,0E0,1.9493446E0,3.8306248E-1,0E0,0E0,2.5138944E-1,3.3157337E-1,3.6640592E-2,2.3277211E-1,2.7651653E-1,0E0,0E0,0E0,0E0,0E0,2.5003374E-1,0E0,2.5522575E-1,0E0,5.797112E-1,0E0,6.920495E-1,9.6966274E-2,2.835132E-1,0E0,3.0025132E-2,1.3657339E-1,0E0,0E0,0E0,0E0,9.0421855E-2,0E0,0E0,0E0,0E0],"parents":[2147483647,0,0,1,1,2,2,4,4,5,5,8,8,9,9,10,10,11,11,12,12,18,18,20,20,22,22,24,24,25,25,26,26,28,28,29,29,34,34],"right_children":[2,4,6,-1,8,-1,-1,-1,-1,-1,-1,-1,-1,-1,-1,-1,-1,-1,-1,-1,-1,-1,-1,-1,-1,-1,-1,-1,-1,-1,-1,-1,-1,-1,-1,-1,-1,-1,-1],"split_conditions":[6.714004E1,6.282891E1,6.908383E1,-1.6056446E-2,6.3008396E1,-0E0,1.6641444E-2,3.0973768E-2,-5.222607E-3,6.187646E-3,-2.8169455E-4,-7.2887503E-3,-0E0,-0E0,2.5166458E-2,-3.3997232E-3,-0E0,-0E0,-8.559394E-3,8.510947E-3,-3.6552872E-3,-3.529369E-2,-0E0,-1.0080026E-2,-0E0,-0E0,-1.1112647E-2,2.4555784E-2,-4.7521284E-3,-0E0,5.7011885E-3,-3.676011E-2,-0E0,-0E0,-6.701114E-3,-0E0,-7.4833194E-3,-1.2456543E-2,-0E0],"split_indices":[1,1,1,0,1,1,0,0,1,2147483647,2147483647,2147483647,2147483647,2147483647,2147483647,2147483647,2147483647,2147483647,2147483647,2147483647,2147483647,2147483647,2147483647,2147483647,2147483647,2147483647,2147483647,2147483647,2147483647,2147483647,2147483647,2147483647,2147483647,2147483647,2147483647,2147483647,2147483647,2147483647,2147483647],"split_type":[0,0,0,0,0,0,0,0,0,0,0,0,0,0,0,0,0,0,0,0,0,0,0,0,0,0,0,0,0,0,0,0,0,0,0,0,0,0,0],"sum_hessian":[8E3,4.579E3,3.421E3,1.582E3,2.997E3,1.362E3,2.059E3,1E2,2.897E3,8.99E2,4.63E2,1.913E3,9.84E2,7.98E2,1.01E2,2.88E2,1.75E2,2.4E2,1.673E3,1.98E2,7.86E2,1.16E2,1.557E3,3.29E2,4.57E2,1.135E3,4.22E2,8.9E1,3.68E2,8.67E2,2.68E2,5.7E1,3.65E2,1.23E2,2.45E2,6.48E2,2.19E2,1.23E2,1.22E2],"tree_param":{"num_deleted":"30","num_feature":"2","num_nodes":"39","size_leaf_vector":"0"}},{"base_weights":[-0E0,-2.2125483E-2,2.6287656E-2,-6.193543E-2,-0E0,-0E0,1.0288829E-1,7.181374E-2,-1.7722666E-2,2.0284958E-2,-0E0,-2.3120562E-2,-0E0,-0E0,9.9665E-2,-4.179606E-2,-0E0,2.4212891E-2,-1.6995875E-2,8.7042384E-2,-0E0,-0E0,-6.20124E-2,1.9189883E-2,-0E0,-1.1735991E-1,-0E0,-1.7028447E-2,-0E0,-1.0776064E-1,-0E0,-0E0,-2.8389387E-2,-0E0,-3.632412E-2,1.8436931E-2,-0E0,-0E0,3.3575375E-2,-0E0,8.388819E-2,-1.133241E-2,-0E0],"categories":[],"categories_nodes":[],"categories_segments":[],"categories_sizes":[],"default_left":[1,1,1,0,1,1,1,0,1,1,1,1,1,1,1,1,1,1,1,1,1,1,1,1,1,1,1,1,1,1,1,1,1,1,1,1,1,1,1,1,1,1,1],"id":79,"left_children":[1,3,-1,-1,7,-1,-1,-1,-1,-1,-1,-1,-1,-1,-1,-1,-1,-1,-1,-1,-1,-1,-1,-1,-1,-1,-1,-1,-1,-1,-1,-1,-1,-1,-1,-1,-1,-1,-1,-1,-1,-1,-1],"loss_changes":[4.69831E0,2.8921175E-1,9.030869E-1,0E0,1.56387E0,8.8364923E-1,0E0,0E0,1.0509074E-1,1.0284022E0,4.83008E-1,0E0,4.3167785E-1,6.780304E-1,0E0,2.6492104E-1,2.325482E-1,0E0,5.1759666E-1,0E0,7.147499E-2,0E0,2.6806718E-1,0E0,0E0,0E0,2.6555702E-1,9.146642E-2,3.4722626E-1,0E0,0E0,2.2376198E-1,0E0,0E0,0E0,3.6700094E-1,3.704925E-2,0E0,0E0,0E0,0E0,0E0,0E0],"parents":[2147483647,0,0,1,1,2,2,4,4,5,5,8,8,9,9,10,10,12,12,13,13,15,15,16,16,18,18,20,20,22,22,26,26,27,27,28,28,31,31,35,35,36,36],"right_children":[2,4,-1,-1,8,-1,-1,-1,-1,-1,-1,-1,-1,-1,-1,-1,-1,-1,-1,-1,-1,-1,-1,-1,-1,-1,-1,-1,-1,-1,-1,-1,-1,-1,-1,-1,-1,-1,-1,-1,-1,-1,-1],"split_conditions":[6.646753E1,6.08479E1,7.886297E-3,-1.8580629E-2,